digraph Tree {
node [shape=box, style="filled, rounded", color="black", fontname="helvetica"] ;
edge [fontname="helvetica"] ;
0 [label=<가슴통증 &le; 0.5<br/>gini = 0.956<br/>samples = 120074<br/>value = [67, 7705, 1956, 202, 1313, 243, 2248, 358, 203, 212<br/>4261, 1078, 1107, 107, 51, 674, 2289, 49, 106, 1217<br/>2508, 44, 294, 2154, 51, 2037, 1884, 282, 8033, 856<br/>93, 1039, 2107, 876, 349, 2417, 1114, 157, 466, 265<br/>635, 64, 438, 3203, 2055, 3127, 290, 117, 1049, 63<br/>58, 87, 767, 519, 569, 187, 79, 133, 73, 2137<br/>16085, 41, 3847, 324, 232, 42, 989, 35, 110, 40<br/>97, 195, 82, 219, 797, 1867, 746, 277, 324, 7708<br/>1298, 6612, 401, 93, 47, 3453, 1856, 939, 644, 76<br/>783, 1693]<br/>class = 본태성(원발성) 고혈압>, fillcolor="#f5f1fd"] ;
1 [label=<목 분비물 및 이물감 &le; 0.5<br/>gini = 0.962<br/>samples = 90381<br/>value = [67, 7705, 1956, 202, 1313, 243, 2248, 358, 203, 212<br/>4261, 1078, 1107, 107, 51, 0, 2289, 49, 106, 1217<br/>2508, 44, 0, 2154, 51, 2037, 1884, 0, 8033, 856<br/>93, 1039, 2107, 876, 349, 2417, 1114, 157, 466, 0<br/>635, 64, 0, 3203, 2055, 3127, 290, 0, 1049, 63, 58<br/>87, 767, 519, 0, 187, 79, 133, 0, 2137, 0, 41<br/>3847, 0, 232, 42, 989, 35, 0, 0, 97, 195, 0, 219<br/>797, 1867, 746, 277, 324, 0, 1298, 6612, 401, 93<br/>47, 3453, 1856, 0, 644, 76, 783, 0]<br/>class = 기관지염>, fillcolor="#fefffe"] ;
0 -> 1 [labeldistance=2.5, labelangle=45, headlabel="True"] ;
2 [label=<체중변화 &le; 0.5<br/>gini = 0.964<br/>samples = 81923<br/>value = [67, 7705, 1956, 202, 1313, 243, 2248, 358, 203, 212<br/>4261, 1078, 1107, 107, 51, 0, 2289, 49, 106, 1217<br/>2508, 44, 0, 2154, 51, 2037, 1884, 0, 0, 856, 93<br/>1039, 2107, 876, 0, 2417, 1114, 157, 466, 0, 635<br/>64, 0, 3203, 2055, 3127, 290, 0, 1049, 63, 58, 87<br/>767, 519, 0, 187, 79, 133, 0, 2137, 0, 41, 3847<br/>0, 232, 42, 989, 35, 0, 0, 97, 195, 0, 219, 797<br/>1867, 746, 277, 324, 0, 1298, 6612, 401, 93, 47<br/>3453, 1856, 0, 644, 0, 783, 0]<br/>class = 2형 당뇨병>, fillcolor="#fffdfc"] ;
1 -> 2 ;
3 [label=<소화문제 &le; 0.5<br/>gini = 0.962<br/>samples = 69489<br/>value = [0, 0, 1956, 0, 1313, 243, 2248, 0, 203, 0, 4261<br/>1078, 1107, 107, 51, 0, 2289, 49, 106, 1217, 2508<br/>44, 0, 2154, 51, 2037, 1884, 0, 0, 856, 93, 0<br/>2107, 876, 0, 2417, 1114, 157, 466, 0, 635, 0, 0<br/>3203, 2055, 3127, 290, 0, 1049, 63, 0, 87, 767<br/>519, 0, 187, 79, 133, 0, 2137, 0, 0, 3847, 0<br/>232, 42, 0, 35, 0, 0, 97, 195, 0, 219, 797, 1867<br/>746, 277, 324, 0, 0, 6612, 0, 93, 47, 3453, 1856<br/>0, 644, 0, 783, 0]<br/>class = 위염 및 십이지장염>, fillcolor="#fef8fa"] ;
2 -> 3 ;
4 [label=<재채기 &le; 0.5<br/>gini = 0.963<br/>samples = 60384<br/>value = [0, 0, 1956, 0, 0, 243, 2248, 0, 203, 0, 4261<br/>1078, 1107, 107, 51, 0, 2289, 49, 106, 1217, 2508<br/>44, 0, 2154, 51, 2037, 1884, 0, 0, 0, 93, 0<br/>2107, 876, 0, 2417, 1114, 157, 466, 0, 635, 0, 0<br/>3203, 2055, 3127, 290, 0, 1049, 63, 0, 87, 767<br/>519, 0, 187, 79, 133, 0, 2137, 0, 0, 3847, 0<br/>232, 42, 0, 35, 0, 0, 97, 195, 0, 219, 797, 1867<br/>746, 277, 0, 0, 0, 0, 0, 93, 47, 3453, 1856, 0<br/>644, 0, 783, 0]<br/>class = 결막염>, fillcolor="#fffffe"] ;
3 -> 4 ;
5 [label=<눈물 &le; 0.5<br/>gini = 0.961<br/>samples = 54029<br/>value = [0, 0, 1956, 0, 0, 243, 2248, 0, 203, 0, 4261<br/>1078, 1107, 107, 51, 0, 2289, 49, 106, 1217, 0, 44<br/>0, 2154, 51, 2037, 1884, 0, 0, 0, 93, 0, 2107<br/>876, 0, 2417, 1114, 157, 466, 0, 635, 0, 0, 3203<br/>2055, 3127, 290, 0, 1049, 63, 0, 87, 767, 519, 0<br/>187, 79, 133, 0, 2137, 0, 0, 0, 0, 232, 42, 0<br/>35, 0, 0, 97, 195, 0, 219, 797, 1867, 746, 277<br/>0, 0, 0, 0, 0, 93, 47, 3453, 1856, 0, 644, 0<br/>783, 0]<br/>class = 결막염>, fillcolor="#fefffc"] ;
4 -> 5 ;
6 [label=<기침 &le; 0.5<br/>gini = 0.957<br/>samples = 45858<br/>value = [0, 0, 0, 0, 0, 243, 2248, 0, 203, 0, 0, 0<br/>1107, 107, 51, 0, 2289, 49, 106, 1217, 0, 44, 0<br/>2154, 51, 2037, 1884, 0, 0, 0, 93, 0, 2107, 876<br/>0, 2417, 1114, 157, 466, 0, 635, 0, 0, 3203, 2055<br/>3127, 290, 0, 1049, 63, 0, 87, 767, 519, 0, 187<br/>0, 133, 0, 2137, 0, 0, 0, 0, 232, 42, 0, 35, 0<br/>0, 97, 195, 0, 219, 0, 1867, 746, 277, 0, 0, 0<br/>0, 0, 93, 47, 3453, 1856, 0, 644, 0, 783, 0]<br/>class = 전립선증식증>, fillcolor="#fffefe"] ;
5 -> 6 ;
7 [label=<배뇨문제 &le; 0.5<br/>gini = 0.954<br/>samples = 40754<br/>value = [0, 0, 0, 0, 0, 243, 2248, 0, 203, 0, 0, 0<br/>1107, 107, 51, 0, 2289, 49, 106, 1217, 0, 44, 0<br/>2154, 51, 2037, 0, 0, 0, 0, 0, 0, 2107, 876, 0<br/>2417, 1114, 157, 466, 0, 635, 0, 0, 3203, 2055, 0<br/>290, 0, 1049, 63, 0, 87, 767, 519, 0, 187, 0<br/>133, 0, 2137, 0, 0, 0, 0, 232, 42, 0, 35, 0, 0<br/>97, 195, 0, 219, 0, 1867, 746, 277, 0, 0, 0, 0<br/>0, 93, 47, 3453, 1856, 0, 644, 0, 783, 0]<br/>class = 전립선증식증>, fillcolor="#fffefe"] ;
6 -> 7 ;
8 [label=<시야문제 &le; 0.5<br/>gini = 0.947<br/>samples = 33541<br/>value = [0, 0, 0, 0, 0, 243, 2248, 0, 203, 0, 0, 0<br/>1107, 107, 51, 0, 2289, 49, 106, 1217, 0, 0, 0<br/>2154, 51, 2037, 0, 0, 0, 0, 0, 0, 2107, 876, 0<br/>2417, 1114, 157, 466, 0, 635, 0, 0, 3203, 2055, 0<br/>290, 0, 1049, 63, 0, 87, 767, 0, 0, 187, 0, 133<br/>0, 0, 0, 0, 0, 0, 232, 42, 0, 35, 0, 0, 97<br/>195, 0, 219, 0, 1867, 746, 0, 0, 0, 0, 0, 0<br/>93, 47, 0, 1856, 0, 644, 0, 0, 0]<br/>class = 노년백내장>, fillcolor="#fafdfe"] ;
7 -> 8 ;
9 [label=<목 통증 &le; 0.5<br/>gini = 0.931<br/>samples = 23063<br/>value = [0, 0, 0, 0, 0, 243, 2248, 0, 203, 0, 0, 0<br/>1107, 107, 51, 0, 2289, 49, 106, 1217, 0, 0, 0<br/>2154, 51, 2037, 0, 0, 0, 0, 0, 0, 2107, 0, 0<br/>0, 1114, 157, 466, 0, 635, 0, 0, 0, 0, 0, 290<br/>0, 0, 63, 0, 87, 767, 0, 0, 0, 0, 133, 0, 0<br/>0, 0, 0, 0, 232, 42, 0, 35, 0, 0, 97, 195, 0<br/>219, 0, 1867, 746, 0, 0, 0, 0, 0, 0, 93, 0, 0<br/>1856, 0, 0, 0, 0, 0]<br/>class = 과민대장증후군>, fillcolor="#ffffff"] ;
8 -> 9 ;
10 [label=<눈 통증 &le; 0.5<br/>gini = 0.92<br/>samples = 18669<br/>value = [0, 0, 0, 0, 0, 243, 2248, 0, 0, 0, 0, 0, 1107<br/>107, 51, 0, 2289, 49, 106, 1217, 0, 0, 0, 0, 51<br/>0, 0, 0, 0, 0, 0, 0, 2107, 0, 0, 0, 1114, 157<br/>466, 0, 635, 0, 0, 0, 0, 0, 290, 0, 0, 63, 0<br/>87, 767, 0, 0, 0, 0, 133, 0, 0, 0, 0, 0, 0<br/>232, 42, 0, 35, 0, 0, 97, 195, 0, 219, 0, 1867<br/>746, 0, 0, 0, 0, 0, 0, 93, 0, 0, 1856, 0, 0<br/>0, 0, 0]<br/>class = 과민대장증후군>, fillcolor="#ffffff"] ;
9 -> 10 ;
11 [label=<구토 및 구역질 &le; 0.5<br/>gini = 0.914<br/>samples = 16813<br/>value = [0, 0, 0, 0, 0, 243, 2248, 0, 0, 0, 0, 0, 1107<br/>107, 51, 0, 2289, 49, 106, 1217, 0, 0, 0, 0, 51<br/>0, 0, 0, 0, 0, 0, 0, 2107, 0, 0, 0, 1114, 157<br/>466, 0, 635, 0, 0, 0, 0, 0, 290, 0, 0, 63, 0<br/>87, 767, 0, 0, 0, 0, 133, 0, 0, 0, 0, 0, 0<br/>232, 42, 0, 35, 0, 0, 97, 195, 0, 219, 0, 1867<br/>746, 0, 0, 0, 0, 0, 0, 93, 0, 0, 0, 0, 0, 0<br/>0, 0]<br/>class = 과민대장증후군>, fillcolor="#fffffe"] ;
10 -> 11 ;
12 [label=<설사 &le; 0.5<br/>gini = 0.891<br/>samples = 12801<br/>value = [0, 0, 0, 0, 0, 243, 0, 0, 0, 0, 0, 0, 1107<br/>107, 51, 0, 2289, 49, 106, 1217, 0, 0, 0, 0, 0<br/>0, 0, 0, 0, 0, 0, 0, 2107, 0, 0, 0, 0, 157<br/>0, 0, 635, 0, 0, 0, 0, 0, 290, 0, 0, 63, 0<br/>87, 767, 0, 0, 0, 0, 0, 0, 0, 0, 0, 0, 0<br/>232, 42, 0, 35, 0, 0, 97, 195, 0, 219, 0, 1867<br/>746, 0, 0, 0, 0, 0, 0, 93, 0, 0, 0, 0, 0, 0<br/>0, 0]<br/>class = 과민대장증후군>, fillcolor="#fdfffc"] ;
11 -> 12 ;
13 [label=<코 막힘 및 콧물 &le; 0.5<br/>gini = 0.866<br/>samples = 7154<br/>value = [0, 0, 0, 0, 0, 243, 0, 0, 0, 0, 0, 0, 0, 107<br/>0, 0, 0, 49, 106, 1217, 0, 0, 0, 0, 0, 0, 0<br/>0, 0, 0, 0, 0, 0, 0, 0, 0, 0, 157, 0, 0, 635<br/>0, 0, 0, 0, 0, 290, 0, 0, 63, 0, 87, 767, 0<br/>0, 0, 0, 0, 0, 0, 0, 0, 0, 0, 232, 42, 0, 35<br/>0, 0, 97, 195, 0, 219, 0, 1867, 746, 0, 0, 0<br/>0, 0, 0, 0, 0, 0, 0, 0, 0, 0, 0, 0]<br/>class = 외이염>, fillcolor="#fce9f6"] ;
12 -> 13 ;
14 [label=<귀 통증 &le; 0.5<br/>gini = 0.847<br/>samples = 5937<br/>value = [0, 0, 0, 0, 0, 243, 0, 0, 0, 0, 0, 0, 0, 107<br/>0, 0, 0, 49, 106, 0, 0, 0, 0, 0, 0, 0, 0, 0<br/>0, 0, 0, 0, 0, 0, 0, 0, 0, 157, 0, 0, 635, 0<br/>0, 0, 0, 0, 290, 0, 0, 63, 0, 87, 767, 0, 0<br/>0, 0, 0, 0, 0, 0, 0, 0, 0, 232, 42, 0, 35, 0<br/>0, 97, 195, 0, 219, 0, 1867, 746, 0, 0, 0, 0<br/>0, 0, 0, 0, 0, 0, 0, 0, 0, 0, 0]<br/>class = 외이염>, fillcolor="#f9d5ee"] ;
13 -> 14 ;
15 [label=<발열 &le; 0.5<br/>gini = 0.853<br/>samples = 2999<br/>value = [0, 0, 0, 0, 0, 243, 0, 0, 0, 0, 0, 0, 0, 0<br/>0, 0, 0, 0, 0, 0, 0, 0, 0, 0, 0, 0, 0, 0<br/>0, 0, 0, 0, 0, 0, 0, 0, 0, 157, 0, 0, 635, 0<br/>0, 0, 0, 0, 290, 0, 0, 0, 0, 87, 767, 0, 0<br/>0, 0, 0, 0, 0, 0, 0, 0, 0, 232, 42, 0, 35, 0<br/>0, 97, 195, 0, 219, 0, 0, 0, 0, 0, 0, 0, 0<br/>0, 0, 0, 0, 0, 0, 0, 0, 0, 0]<br/>class = 만성 바이러스간염>, fillcolor="#f4f6fe"] ;
14 -> 15 ;
16 [label=<피로 &le; 0.5<br/>gini = 0.803<br/>samples = 2090<br/>value = [0, 0, 0, 0, 0, 243, 0, 0, 0, 0, 0, 0, 0, 0<br/>0, 0, 0, 0, 0, 0, 0, 0, 0, 0, 0, 0, 0, 0<br/>0, 0, 0, 0, 0, 0, 0, 0, 0, 157, 0, 0, 0, 0<br/>0, 0, 0, 0, 290, 0, 0, 0, 0, 87, 767, 0, 0<br/>0, 0, 0, 0, 0, 0, 0, 0, 0, 0, 0, 0, 35, 0<br/>0, 97, 195, 0, 219, 0, 0, 0, 0, 0, 0, 0, 0<br/>0, 0, 0, 0, 0, 0, 0, 0, 0, 0]<br/>class = 만성 바이러스간염>, fillcolor="#cbd4f8"] ;
15 -> 16 ;
17 [label=<gini = 0.499<br/>samples = 462<br/>value = [0, 0, 0, 0, 0, 243, 0, 0, 0, 0, 0, 0, 0, 0<br/>0, 0, 0, 0, 0, 0, 0, 0, 0, 0, 0, 0, 0, 0<br/>0, 0, 0, 0, 0, 0, 0, 0, 0, 0, 0, 0, 0, 0<br/>0, 0, 0, 0, 0, 0, 0, 0, 0, 0, 0, 0, 0, 0<br/>0, 0, 0, 0, 0, 0, 0, 0, 0, 0, 0, 0, 0, 0<br/>0, 0, 0, 219, 0, 0, 0, 0, 0, 0, 0, 0, 0, 0<br/>0, 0, 0, 0, 0, 0, 0, 0]<br/>class = 간의 섬유증 및 경변증>, fillcolor="#fcf8eb"] ;
16 -> 17 ;
18 [label=<호흡문제 &le; 0.5<br/>gini = 0.716<br/>samples = 1628<br/>value = [0, 0, 0, 0, 0, 0, 0, 0, 0, 0, 0, 0, 0, 0<br/>0, 0, 0, 0, 0, 0, 0, 0, 0, 0, 0, 0, 0, 0<br/>0, 0, 0, 0, 0, 0, 0, 0, 0, 157, 0, 0, 0, 0<br/>0, 0, 0, 0, 290, 0, 0, 0, 0, 87, 767, 0, 0<br/>0, 0, 0, 0, 0, 0, 0, 0, 0, 0, 0, 0, 35, 0<br/>0, 97, 195, 0, 0, 0, 0, 0, 0, 0, 0, 0, 0, 0<br/>0, 0, 0, 0, 0, 0, 0, 0, 0]<br/>class = 만성 바이러스간염>, fillcolor="#b8c5f6"] ;
16 -> 18 ;
19 [label=<gini = 0.48<br/>samples = 1144<br/>value = [0, 0, 0, 0, 0, 0, 0, 0, 0, 0, 0, 0, 0, 0<br/>0, 0, 0, 0, 0, 0, 0, 0, 0, 0, 0, 0, 0, 0<br/>0, 0, 0, 0, 0, 0, 0, 0, 0, 0, 0, 0, 0, 0<br/>0, 0, 0, 0, 290, 0, 0, 0, 0, 87, 767, 0, 0<br/>0, 0, 0, 0, 0, 0, 0, 0, 0, 0, 0, 0, 0, 0<br/>0, 0, 0, 0, 0, 0, 0, 0, 0, 0, 0, 0, 0, 0<br/>0, 0, 0, 0, 0, 0, 0, 0, 0]<br/>class = 만성 바이러스간염>, fillcolor="#90a3f0"] ;
18 -> 19 ;
20 [label=<피부문제 &le; 0.5<br/>gini = 0.687<br/>samples = 484<br/>value = [0, 0, 0, 0, 0, 0, 0, 0, 0, 0, 0, 0, 0, 0<br/>0, 0, 0, 0, 0, 0, 0, 0, 0, 0, 0, 0, 0, 0<br/>0, 0, 0, 0, 0, 0, 0, 0, 0, 157, 0, 0, 0, 0<br/>0, 0, 0, 0, 0, 0, 0, 0, 0, 0, 0, 0, 0, 0<br/>0, 0, 0, 0, 0, 0, 0, 0, 0, 0, 0, 35, 0, 0<br/>97, 195, 0, 0, 0, 0, 0, 0, 0, 0, 0, 0, 0, 0<br/>0, 0, 0, 0, 0, 0, 0, 0]<br/>class = 심부전>, fillcolor="#fce8fb"] ;
18 -> 20 ;
21 [label=<심장박동수변화 &le; 0.5<br/>gini = 0.545<br/>samples = 327<br/>value = [0, 0, 0, 0, 0, 0, 0, 0, 0, 0, 0, 0, 0, 0<br/>0, 0, 0, 0, 0, 0, 0, 0, 0, 0, 0, 0, 0, 0<br/>0, 0, 0, 0, 0, 0, 0, 0, 0, 0, 0, 0, 0, 0<br/>0, 0, 0, 0, 0, 0, 0, 0, 0, 0, 0, 0, 0, 0<br/>0, 0, 0, 0, 0, 0, 0, 0, 0, 0, 0, 35, 0, 0<br/>97, 195, 0, 0, 0, 0, 0, 0, 0, 0, 0, 0, 0, 0<br/>0, 0, 0, 0, 0, 0, 0, 0]<br/>class = 심부전>, fillcolor="#f4abf1"] ;
20 -> 21 ;
22 [label=<gini = 0.0<br/>samples = 35<br/>value = [0, 0, 0, 0, 0, 0, 0, 0, 0, 0, 0, 0, 0, 0<br/>0, 0, 0, 0, 0, 0, 0, 0, 0, 0, 0, 0, 0, 0<br/>0, 0, 0, 0, 0, 0, 0, 0, 0, 0, 0, 0, 0, 0<br/>0, 0, 0, 0, 0, 0, 0, 0, 0, 0, 0, 0, 0, 0<br/>0, 0, 0, 0, 0, 0, 0, 0, 0, 0, 0, 35, 0, 0<br/>0, 0, 0, 0, 0, 0, 0, 0, 0, 0, 0, 0, 0, 0<br/>0, 0, 0, 0, 0, 0, 0, 0]<br/>class = 순환계통의 기타 및 상세불명의 장애>, fillcolor="#c039e5"] ;
21 -> 22 ;
23 [label=<gini = 0.444<br/>samples = 292<br/>value = [0, 0, 0, 0, 0, 0, 0, 0, 0, 0, 0, 0, 0, 0<br/>0, 0, 0, 0, 0, 0, 0, 0, 0, 0, 0, 0, 0, 0<br/>0, 0, 0, 0, 0, 0, 0, 0, 0, 0, 0, 0, 0, 0<br/>0, 0, 0, 0, 0, 0, 0, 0, 0, 0, 0, 0, 0, 0<br/>0, 0, 0, 0, 0, 0, 0, 0, 0, 0, 0, 0, 0, 0<br/>97, 195, 0, 0, 0, 0, 0, 0, 0, 0, 0, 0, 0, 0<br/>0, 0, 0, 0, 0, 0, 0, 0]<br/>class = 심부전>, fillcolor="#f29bef"] ;
21 -> 23 ;
24 [label=<gini = 0.0<br/>samples = 157<br/>value = [0, 0, 0, 0, 0, 0, 0, 0, 0, 0, 0, 0, 0, 0<br/>0, 0, 0, 0, 0, 0, 0, 0, 0, 0, 0, 0, 0, 0<br/>0, 0, 0, 0, 0, 0, 0, 0, 0, 157, 0, 0, 0, 0<br/>0, 0, 0, 0, 0, 0, 0, 0, 0, 0, 0, 0, 0, 0<br/>0, 0, 0, 0, 0, 0, 0, 0, 0, 0, 0, 0, 0, 0<br/>0, 0, 0, 0, 0, 0, 0, 0, 0, 0, 0, 0, 0, 0<br/>0, 0, 0, 0, 0, 0, 0, 0]<br/>class = 기타 빈혈>, fillcolor="#39e5c5"] ;
20 -> 24 ;
25 [label=<피부문제 &le; 0.5<br/>gini = 0.445<br/>samples = 909<br/>value = [0, 0, 0, 0, 0, 0, 0, 0, 0, 0, 0, 0, 0, 0<br/>0, 0, 0, 0, 0, 0, 0, 0, 0, 0, 0, 0, 0, 0<br/>0, 0, 0, 0, 0, 0, 0, 0, 0, 0, 0, 0, 635, 0<br/>0, 0, 0, 0, 0, 0, 0, 0, 0, 0, 0, 0, 0, 0<br/>0, 0, 0, 0, 0, 0, 0, 0, 232, 42, 0, 0, 0, 0<br/>0, 0, 0, 0, 0, 0, 0, 0, 0, 0, 0, 0, 0, 0<br/>0, 0, 0, 0, 0, 0, 0, 0]<br/>class = 기타 염증성 간질환>, fillcolor="#89eef0"] ;
15 -> 25 ;
26 [label=<체온조절문제 &le; 0.5<br/>gini = 0.26<br/>samples = 274<br/>value = [0, 0, 0, 0, 0, 0, 0, 0, 0, 0, 0, 0, 0, 0<br/>0, 0, 0, 0, 0, 0, 0, 0, 0, 0, 0, 0, 0, 0<br/>0, 0, 0, 0, 0, 0, 0, 0, 0, 0, 0, 0, 0, 0<br/>0, 0, 0, 0, 0, 0, 0, 0, 0, 0, 0, 0, 0, 0<br/>0, 0, 0, 0, 0, 0, 0, 0, 232, 42, 0, 0, 0, 0<br/>0, 0, 0, 0, 0, 0, 0, 0, 0, 0, 0, 0, 0, 0<br/>0, 0, 0, 0, 0, 0, 0, 0]<br/>class = 상세불명 부위의 바이러스감염>, fillcolor="#af5dea"] ;
25 -> 26 ;
27 [label=<gini = 0.0<br/>samples = 232<br/>value = [0, 0, 0, 0, 0, 0, 0, 0, 0, 0, 0, 0, 0, 0<br/>0, 0, 0, 0, 0, 0, 0, 0, 0, 0, 0, 0, 0, 0<br/>0, 0, 0, 0, 0, 0, 0, 0, 0, 0, 0, 0, 0, 0<br/>0, 0, 0, 0, 0, 0, 0, 0, 0, 0, 0, 0, 0, 0<br/>0, 0, 0, 0, 0, 0, 0, 0, 232, 0, 0, 0, 0, 0<br/>0, 0, 0, 0, 0, 0, 0, 0, 0, 0, 0, 0, 0, 0<br/>0, 0, 0, 0, 0, 0, 0, 0]<br/>class = 상세불명 부위의 바이러스감염>, fillcolor="#9d39e5"] ;
26 -> 27 ;
28 [label=<gini = 0.0<br/>samples = 42<br/>value = [0, 0, 0, 0, 0, 0, 0, 0, 0, 0, 0, 0, 0, 0<br/>0, 0, 0, 0, 0, 0, 0, 0, 0, 0, 0, 0, 0, 0<br/>0, 0, 0, 0, 0, 0, 0, 0, 0, 0, 0, 0, 0, 0<br/>0, 0, 0, 0, 0, 0, 0, 0, 0, 0, 0, 0, 0, 0<br/>0, 0, 0, 0, 0, 0, 0, 0, 0, 42, 0, 0, 0, 0<br/>0, 0, 0, 0, 0, 0, 0, 0, 0, 0, 0, 0, 0, 0<br/>0, 0, 0, 0, 0, 0, 0, 0]<br/>class = 상세불명 부위의 세균감염>, fillcolor="#a939e5"] ;
26 -> 28 ;
29 [label=<gini = 0.0<br/>samples = 635<br/>value = [0, 0, 0, 0, 0, 0, 0, 0, 0, 0, 0, 0, 0, 0<br/>0, 0, 0, 0, 0, 0, 0, 0, 0, 0, 0, 0, 0, 0<br/>0, 0, 0, 0, 0, 0, 0, 0, 0, 0, 0, 0, 635, 0<br/>0, 0, 0, 0, 0, 0, 0, 0, 0, 0, 0, 0, 0, 0<br/>0, 0, 0, 0, 0, 0, 0, 0, 0, 0, 0, 0, 0, 0<br/>0, 0, 0, 0, 0, 0, 0, 0, 0, 0, 0, 0, 0, 0<br/>0, 0, 0, 0, 0, 0, 0, 0]<br/>class = 기타 염증성 간질환>, fillcolor="#39e2e5"] ;
25 -> 29 ;
30 [label=<발열 &le; 0.5<br/>gini = 0.528<br/>samples = 2938<br/>value = [0, 0, 0, 0, 0, 0, 0, 0, 0, 0, 0, 0, 0, 107<br/>0, 0, 0, 49, 106, 0, 0, 0, 0, 0, 0, 0, 0, 0<br/>0, 0, 0, 0, 0, 0, 0, 0, 0, 0, 0, 0, 0, 0<br/>0, 0, 0, 0, 0, 0, 0, 63, 0, 0, 0, 0, 0, 0<br/>0, 0, 0, 0, 0, 0, 0, 0, 0, 0, 0, 0, 0, 0<br/>0, 0, 0, 0, 0, 1867, 746, 0, 0, 0, 0, 0, 0<br/>0, 0, 0, 0, 0, 0, 0, 0, 0]<br/>class = 외이염>, fillcolor="#f29ad7"] ;
14 -> 30 ;
31 [label=<gini = 0.494<br/>samples = 2832<br/>value = [0, 0, 0, 0, 0, 0, 0, 0, 0, 0, 0, 0, 0, 107<br/>0, 0, 0, 49, 0, 0, 0, 0, 0, 0, 0, 0, 0, 0<br/>0, 0, 0, 0, 0, 0, 0, 0, 0, 0, 0, 0, 0, 0<br/>0, 0, 0, 0, 0, 0, 0, 63, 0, 0, 0, 0, 0, 0<br/>0, 0, 0, 0, 0, 0, 0, 0, 0, 0, 0, 0, 0, 0<br/>0, 0, 0, 0, 0, 1867, 746, 0, 0, 0, 0, 0, 0<br/>0, 0, 0, 0, 0, 0, 0, 0, 0]<br/>class = 외이염>, fillcolor="#f195d5"] ;
30 -> 31 ;
32 [label=<gini = 0.0<br/>samples = 106<br/>value = [0, 0, 0, 0, 0, 0, 0, 0, 0, 0, 0, 0, 0, 0<br/>0, 0, 0, 0, 106, 0, 0, 0, 0, 0, 0, 0, 0, 0<br/>0, 0, 0, 0, 0, 0, 0, 0, 0, 0, 0, 0, 0, 0<br/>0, 0, 0, 0, 0, 0, 0, 0, 0, 0, 0, 0, 0, 0<br/>0, 0, 0, 0, 0, 0, 0, 0, 0, 0, 0, 0, 0, 0<br/>0, 0, 0, 0, 0, 0, 0, 0, 0, 0, 0, 0, 0, 0<br/>0, 0, 0, 0, 0, 0, 0, 0]<br/>class = 귀통증 및 귀의 삼출액>, fillcolor="#81e539"] ;
30 -> 32 ;
33 [label=<gini = 0.0<br/>samples = 1217<br/>value = [0, 0, 0, 0, 0, 0, 0, 0, 0, 0, 0, 0, 0, 0<br/>0, 0, 0, 0, 0, 1217, 0, 0, 0, 0, 0, 0, 0, 0<br/>0, 0, 0, 0, 0, 0, 0, 0, 0, 0, 0, 0, 0, 0<br/>0, 0, 0, 0, 0, 0, 0, 0, 0, 0, 0, 0, 0, 0<br/>0, 0, 0, 0, 0, 0, 0, 0, 0, 0, 0, 0, 0, 0<br/>0, 0, 0, 0, 0, 0, 0, 0, 0, 0, 0, 0, 0, 0<br/>0, 0, 0, 0, 0, 0, 0, 0]<br/>class = 급성 부비동염>, fillcolor="#75e539"] ;
13 -> 33 ;
34 [label=<발열 &le; 0.5<br/>gini = 0.658<br/>samples = 5647<br/>value = [0, 0, 0, 0, 0, 0, 0, 0, 0, 0, 0, 0, 1107, 0<br/>51, 0, 2289, 0, 0, 0, 0, 0, 0, 0, 0, 0, 0, 0<br/>0, 0, 0, 0, 2107, 0, 0, 0, 0, 0, 0, 0, 0, 0<br/>0, 0, 0, 0, 0, 0, 0, 0, 0, 0, 0, 0, 0, 0<br/>0, 0, 0, 0, 0, 0, 0, 0, 0, 0, 0, 0, 0, 0<br/>0, 0, 0, 0, 0, 0, 0, 0, 0, 0, 0, 0, 0, 93<br/>0, 0, 0, 0, 0, 0, 0, 0]<br/>class = 과민대장증후군>, fillcolor="#fafef5"] ;
12 -> 34 ;
35 [label=<gini = 0.646<br/>samples = 5554<br/>value = [0, 0, 0, 0, 0, 0, 0, 0, 0, 0, 0, 0, 1107, 0<br/>51, 0, 2289, 0, 0, 0, 0, 0, 0, 0, 0, 0, 0, 0<br/>0, 0, 0, 0, 2107, 0, 0, 0, 0, 0, 0, 0, 0, 0<br/>0, 0, 0, 0, 0, 0, 0, 0, 0, 0, 0, 0, 0, 0<br/>0, 0, 0, 0, 0, 0, 0, 0, 0, 0, 0, 0, 0, 0<br/>0, 0, 0, 0, 0, 0, 0, 0, 0, 0, 0, 0, 0, 0<br/>0, 0, 0, 0, 0, 0, 0, 0]<br/>class = 과민대장증후군>, fillcolor="#fafef5"] ;
34 -> 35 ;
36 [label=<gini = 0.0<br/>samples = 93<br/>value = [0, 0, 0, 0, 0, 0, 0, 0, 0, 0, 0, 0, 0, 0<br/>0, 0, 0, 0, 0, 0, 0, 0, 0, 0, 0, 0, 0, 0<br/>0, 0, 0, 0, 0, 0, 0, 0, 0, 0, 0, 0, 0, 0<br/>0, 0, 0, 0, 0, 0, 0, 0, 0, 0, 0, 0, 0, 0<br/>0, 0, 0, 0, 0, 0, 0, 0, 0, 0, 0, 0, 0, 0<br/>0, 0, 0, 0, 0, 0, 0, 0, 0, 0, 0, 0, 0, 93<br/>0, 0, 0, 0, 0, 0, 0, 0]<br/>class = 장의 게실병>, fillcolor="#e53958"] ;
34 -> 36 ;
37 [label=<발열 &le; 0.5<br/>gini = 0.594<br/>samples = 4012<br/>value = [0, 0, 0, 0, 0, 0, 2248, 0, 0, 0, 0, 0, 0, 0<br/>0, 0, 0, 0, 0, 0, 0, 0, 0, 0, 51, 0, 0, 0<br/>0, 0, 0, 0, 0, 0, 0, 0, 1114, 0, 466, 0, 0<br/>0, 0, 0, 0, 0, 0, 0, 0, 0, 0, 0, 0, 0, 0<br/>0, 0, 133, 0, 0, 0, 0, 0, 0, 0, 0, 0, 0, 0<br/>0, 0, 0, 0, 0, 0, 0, 0, 0, 0, 0, 0, 0, 0<br/>0, 0, 0, 0, 0, 0, 0, 0, 0]<br/>class = 감염성 및 상세불명 기원의 기타 위장염 및 결장염>, fillcolor="#f5e8b2"] ;
11 -> 37 ;
38 [label=<gini = 0.0<br/>samples = 1114<br/>value = [0, 0, 0, 0, 0, 0, 0, 0, 0, 0, 0, 0, 0, 0<br/>0, 0, 0, 0, 0, 0, 0, 0, 0, 0, 0, 0, 0, 0<br/>0, 0, 0, 0, 0, 0, 0, 0, 1114, 0, 0, 0, 0, 0<br/>0, 0, 0, 0, 0, 0, 0, 0, 0, 0, 0, 0, 0, 0<br/>0, 0, 0, 0, 0, 0, 0, 0, 0, 0, 0, 0, 0, 0<br/>0, 0, 0, 0, 0, 0, 0, 0, 0, 0, 0, 0, 0, 0<br/>0, 0, 0, 0, 0, 0, 0, 0]<br/>class = 기타 비감염성 위장염 및 결장염>, fillcolor="#39e5ba"] ;
37 -> 38 ;
39 [label=<설사 &le; 0.5<br/>gini = 0.37<br/>samples = 2898<br/>value = [0, 0, 0, 0, 0, 0, 2248, 0, 0, 0, 0, 0, 0, 0<br/>0, 0, 0, 0, 0, 0, 0, 0, 0, 0, 51, 0, 0, 0<br/>0, 0, 0, 0, 0, 0, 0, 0, 0, 0, 466, 0, 0, 0<br/>0, 0, 0, 0, 0, 0, 0, 0, 0, 0, 0, 0, 0, 0<br/>0, 133, 0, 0, 0, 0, 0, 0, 0, 0, 0, 0, 0, 0<br/>0, 0, 0, 0, 0, 0, 0, 0, 0, 0, 0, 0, 0, 0<br/>0, 0, 0, 0, 0, 0, 0, 0]<br/>class = 감염성 및 상세불명 기원의 기타 위장염 및 결장염>, fillcolor="#ecd36e"] ;
37 -> 39 ;
40 [label=<gini = 0.0<br/>samples = 51<br/>value = [0, 0, 0, 0, 0, 0, 0, 0, 0, 0, 0, 0, 0, 0<br/>0, 0, 0, 0, 0, 0, 0, 0, 0, 0, 51, 0, 0, 0<br/>0, 0, 0, 0, 0, 0, 0, 0, 0, 0, 0, 0, 0, 0<br/>0, 0, 0, 0, 0, 0, 0, 0, 0, 0, 0, 0, 0, 0<br/>0, 0, 0, 0, 0, 0, 0, 0, 0, 0, 0, 0, 0, 0<br/>0, 0, 0, 0, 0, 0, 0, 0, 0, 0, 0, 0, 0, 0<br/>0, 0, 0, 0, 0, 0, 0, 0]<br/>class = 급성 췌장염>, fillcolor="#3fe539"] ;
39 -> 40 ;
41 [label=<gini = 0.348<br/>samples = 2847<br/>value = [0, 0, 0, 0, 0, 0, 2248, 0, 0, 0, 0, 0, 0, 0<br/>0, 0, 0, 0, 0, 0, 0, 0, 0, 0, 0, 0, 0, 0<br/>0, 0, 0, 0, 0, 0, 0, 0, 0, 0, 466, 0, 0, 0<br/>0, 0, 0, 0, 0, 0, 0, 0, 0, 0, 0, 0, 0, 0<br/>0, 133, 0, 0, 0, 0, 0, 0, 0, 0, 0, 0, 0, 0<br/>0, 0, 0, 0, 0, 0, 0, 0, 0, 0, 0, 0, 0, 0<br/>0, 0, 0, 0, 0, 0, 0, 0]<br/>class = 감염성 및 상세불명 기원의 기타 위장염 및 결장염>, fillcolor="#ecd26b"] ;
39 -> 41 ;
42 [label=<gini = 0.0<br/>samples = 1856<br/>value = [0, 0, 0, 0, 0, 0, 0, 0, 0, 0, 0, 0, 0, 0<br/>0, 0, 0, 0, 0, 0, 0, 0, 0, 0, 0, 0, 0, 0<br/>0, 0, 0, 0, 0, 0, 0, 0, 0, 0, 0, 0, 0, 0<br/>0, 0, 0, 0, 0, 0, 0, 0, 0, 0, 0, 0, 0, 0<br/>0, 0, 0, 0, 0, 0, 0, 0, 0, 0, 0, 0, 0, 0<br/>0, 0, 0, 0, 0, 0, 0, 0, 0, 0, 0, 0, 0, 0<br/>0, 0, 1856, 0, 0, 0, 0, 0]<br/>class = 전정기능의 장애>, fillcolor="#e53c39"] ;
10 -> 42 ;
43 [label=<피로 &le; 0.5<br/>gini = 0.543<br/>samples = 4394<br/>value = [0, 0, 0, 0, 0, 0, 0, 0, 203, 0, 0, 0, 0, 0<br/>0, 0, 0, 0, 0, 0, 0, 0, 0, 2154, 0, 2037, 0<br/>0, 0, 0, 0, 0, 0, 0, 0, 0, 0, 0, 0, 0, 0<br/>0, 0, 0, 0, 0, 0, 0, 0, 0, 0, 0, 0, 0, 0<br/>0, 0, 0, 0, 0, 0, 0, 0, 0, 0, 0, 0, 0, 0<br/>0, 0, 0, 0, 0, 0, 0, 0, 0, 0, 0, 0, 0, 0<br/>0, 0, 0, 0, 0, 0, 0, 0, 0]<br/>class = 급성 인두염>, fillcolor="#f6fef5"] ;
9 -> 43 ;
44 [label=<gini = 0.5<br/>samples = 4191<br/>value = [0, 0, 0, 0, 0, 0, 0, 0, 0, 0, 0, 0, 0, 0<br/>0, 0, 0, 0, 0, 0, 0, 0, 0, 2154, 0, 2037, 0<br/>0, 0, 0, 0, 0, 0, 0, 0, 0, 0, 0, 0, 0, 0<br/>0, 0, 0, 0, 0, 0, 0, 0, 0, 0, 0, 0, 0, 0<br/>0, 0, 0, 0, 0, 0, 0, 0, 0, 0, 0, 0, 0, 0<br/>0, 0, 0, 0, 0, 0, 0, 0, 0, 0, 0, 0, 0, 0<br/>0, 0, 0, 0, 0, 0, 0, 0, 0]<br/>class = 급성 인두염>, fillcolor="#f5fef4"] ;
43 -> 44 ;
45 [label=<gini = 0.0<br/>samples = 203<br/>value = [0, 0, 0, 0, 0, 0, 0, 0, 203, 0, 0, 0, 0, 0<br/>0, 0, 0, 0, 0, 0, 0, 0, 0, 0, 0, 0, 0, 0<br/>0, 0, 0, 0, 0, 0, 0, 0, 0, 0, 0, 0, 0, 0<br/>0, 0, 0, 0, 0, 0, 0, 0, 0, 0, 0, 0, 0, 0<br/>0, 0, 0, 0, 0, 0, 0, 0, 0, 0, 0, 0, 0, 0<br/>0, 0, 0, 0, 0, 0, 0, 0, 0, 0, 0, 0, 0, 0<br/>0, 0, 0, 0, 0, 0, 0, 0]<br/>class = 갑상선염>, fillcolor="#e5da39"] ;
43 -> 45 ;
46 [label=<두통 &le; 0.5<br/>gini = 0.794<br/>samples = 10478<br/>value = [0, 0, 0, 0, 0, 0, 0, 0, 0, 0, 0, 0, 0, 0<br/>0, 0, 0, 0, 0, 0, 0, 0, 0, 0, 0, 0, 0, 0<br/>0, 0, 0, 0, 0, 876, 0, 2417, 0, 0, 0, 0, 0<br/>0, 0, 3203, 2055, 0, 0, 0, 1049, 0, 0, 0, 0, 0<br/>0, 187, 0, 0, 0, 0, 0, 0, 0, 0, 0, 0, 0, 0<br/>0, 0, 0, 0, 0, 0, 0, 0, 0, 0, 0, 0, 0, 0<br/>0, 0, 47, 0, 0, 0, 644, 0, 0, 0]<br/>class = 노년백내장>, fillcolor="#ecf9fc"] ;
8 -> 46 ;
47 [label=<피로 &le; 0.5<br/>gini = 0.638<br/>samples = 6903<br/>value = [0, 0, 0, 0, 0, 0, 0, 0, 0, 0, 0, 0, 0, 0<br/>0, 0, 0, 0, 0, 0, 0, 0, 0, 0, 0, 0, 0, 0<br/>0, 0, 0, 0, 0, 0, 0, 2417, 0, 0, 0, 0, 0, 0<br/>0, 3203, 0, 0, 0, 0, 1049, 0, 0, 0, 0, 0, 0<br/>187, 0, 0, 0, 0, 0, 0, 0, 0, 0, 0, 0, 0, 0<br/>0, 0, 0, 0, 0, 0, 0, 0, 0, 0, 0, 0, 0, 0<br/>0, 47, 0, 0, 0, 0, 0, 0, 0]<br/>class = 노년백내장>, fillcolor="#dcf4fa"] ;
46 -> 47 ;
48 [label=<gini = 0.633<br/>samples = 6856<br/>value = [0, 0, 0, 0, 0, 0, 0, 0, 0, 0, 0, 0, 0, 0<br/>0, 0, 0, 0, 0, 0, 0, 0, 0, 0, 0, 0, 0, 0<br/>0, 0, 0, 0, 0, 0, 0, 2417, 0, 0, 0, 0, 0, 0<br/>0, 3203, 0, 0, 0, 0, 1049, 0, 0, 0, 0, 0, 0<br/>187, 0, 0, 0, 0, 0, 0, 0, 0, 0, 0, 0, 0, 0<br/>0, 0, 0, 0, 0, 0, 0, 0, 0, 0, 0, 0, 0, 0<br/>0, 0, 0, 0, 0, 0, 0, 0, 0]<br/>class = 노년백내장>, fillcolor="#dcf4fa"] ;
47 -> 48 ;
49 [label=<gini = 0.0<br/>samples = 47<br/>value = [0, 0, 0, 0, 0, 0, 0, 0, 0, 0, 0, 0, 0, 0<br/>0, 0, 0, 0, 0, 0, 0, 0, 0, 0, 0, 0, 0, 0<br/>0, 0, 0, 0, 0, 0, 0, 0, 0, 0, 0, 0, 0, 0<br/>0, 0, 0, 0, 0, 0, 0, 0, 0, 0, 0, 0, 0, 0<br/>0, 0, 0, 0, 0, 0, 0, 0, 0, 0, 0, 0, 0, 0<br/>0, 0, 0, 0, 0, 0, 0, 0, 0, 0, 0, 0, 0, 0<br/>47, 0, 0, 0, 0, 0, 0, 0]<br/>class = 저혈압>, fillcolor="#e5394d"] ;
47 -> 49 ;
50 [label=<청력 문제 &le; 0.5<br/>gini = 0.577<br/>samples = 3575<br/>value = [0, 0, 0, 0, 0, 0, 0, 0, 0, 0, 0, 0, 0, 0<br/>0, 0, 0, 0, 0, 0, 0, 0, 0, 0, 0, 0, 0, 0<br/>0, 0, 0, 0, 0, 876, 0, 0, 0, 0, 0, 0, 0, 0<br/>0, 0, 2055, 0, 0, 0, 0, 0, 0, 0, 0, 0, 0, 0<br/>0, 0, 0, 0, 0, 0, 0, 0, 0, 0, 0, 0, 0, 0<br/>0, 0, 0, 0, 0, 0, 0, 0, 0, 0, 0, 0, 0, 0<br/>0, 0, 0, 0, 644, 0, 0, 0]<br/>class = 녹내장>, fillcolor="#a9def4"] ;
46 -> 50 ;
51 [label=<gini = 0.0<br/>samples = 2055<br/>value = [0, 0, 0, 0, 0, 0, 0, 0, 0, 0, 0, 0, 0, 0<br/>0, 0, 0, 0, 0, 0, 0, 0, 0, 0, 0, 0, 0, 0<br/>0, 0, 0, 0, 0, 0, 0, 0, 0, 0, 0, 0, 0, 0<br/>0, 0, 2055, 0, 0, 0, 0, 0, 0, 0, 0, 0, 0, 0<br/>0, 0, 0, 0, 0, 0, 0, 0, 0, 0, 0, 0, 0, 0<br/>0, 0, 0, 0, 0, 0, 0, 0, 0, 0, 0, 0, 0, 0<br/>0, 0, 0, 0, 0, 0, 0, 0]<br/>class = 녹내장>, fillcolor="#39b4e5"] ;
50 -> 51 ;
52 [label=<구토 및 구역질 &le; 0.5<br/>gini = 0.488<br/>samples = 1520<br/>value = [0, 0, 0, 0, 0, 0, 0, 0, 0, 0, 0, 0, 0, 0<br/>0, 0, 0, 0, 0, 0, 0, 0, 0, 0, 0, 0, 0, 0<br/>0, 0, 0, 0, 0, 876, 0, 0, 0, 0, 0, 0, 0, 0<br/>0, 0, 0, 0, 0, 0, 0, 0, 0, 0, 0, 0, 0, 0<br/>0, 0, 0, 0, 0, 0, 0, 0, 0, 0, 0, 0, 0, 0<br/>0, 0, 0, 0, 0, 0, 0, 0, 0, 0, 0, 0, 0, 0<br/>0, 0, 0, 0, 644, 0, 0, 0]<br/>class = 기타 두통증후군>, fillcolor="#cbf8e4"] ;
50 -> 52 ;
53 [label=<gini = 0.0<br/>samples = 876<br/>value = [0, 0, 0, 0, 0, 0, 0, 0, 0, 0, 0, 0, 0, 0<br/>0, 0, 0, 0, 0, 0, 0, 0, 0, 0, 0, 0, 0, 0<br/>0, 0, 0, 0, 0, 876, 0, 0, 0, 0, 0, 0, 0, 0<br/>0, 0, 0, 0, 0, 0, 0, 0, 0, 0, 0, 0, 0, 0<br/>0, 0, 0, 0, 0, 0, 0, 0, 0, 0, 0, 0, 0, 0<br/>0, 0, 0, 0, 0, 0, 0, 0, 0, 0, 0, 0, 0, 0<br/>0, 0, 0, 0, 0, 0, 0, 0]<br/>class = 기타 두통증후군>, fillcolor="#39e59a"] ;
52 -> 53 ;
54 [label=<gini = 0.0<br/>samples = 644<br/>value = [0, 0, 0, 0, 0, 0, 0, 0, 0, 0, 0, 0, 0, 0<br/>0, 0, 0, 0, 0, 0, 0, 0, 0, 0, 0, 0, 0, 0<br/>0, 0, 0, 0, 0, 0, 0, 0, 0, 0, 0, 0, 0, 0<br/>0, 0, 0, 0, 0, 0, 0, 0, 0, 0, 0, 0, 0, 0<br/>0, 0, 0, 0, 0, 0, 0, 0, 0, 0, 0, 0, 0, 0<br/>0, 0, 0, 0, 0, 0, 0, 0, 0, 0, 0, 0, 0, 0<br/>0, 0, 0, 0, 644, 0, 0, 0]<br/>class = 편두통>, fillcolor="#e55339"] ;
52 -> 54 ;
55 [label=<복통 및 속쓰림 &le; 0.5<br/>gini = 0.665<br/>samples = 7213<br/>value = [0, 0, 0, 0, 0, 0, 0, 0, 0, 0, 0, 0, 0, 0<br/>0, 0, 0, 0, 0, 0, 0, 44, 0, 0, 0, 0, 0, 0<br/>0, 0, 0, 0, 0, 0, 0, 0, 0, 0, 0, 0, 0, 0<br/>0, 0, 0, 0, 0, 0, 0, 0, 0, 0, 0, 519, 0, 0<br/>0, 0, 0, 2137, 0, 0, 0, 0, 0, 0, 0, 0, 0, 0<br/>0, 0, 0, 0, 0, 0, 0, 277, 0, 0, 0, 0, 0, 0<br/>0, 3453, 0, 0, 0, 0, 783, 0]<br/>class = 전립선증식증>, fillcolor="#f8ccce"] ;
7 -> 55 ;
56 [label=<피로 &le; 0.5<br/>gini = 0.491<br/>samples = 5032<br/>value = [0, 0, 0, 0, 0, 0, 0, 0, 0, 0, 0, 0, 0, 0<br/>0, 0, 0, 0, 0, 0, 0, 0, 0, 0, 0, 0, 0, 0<br/>0, 0, 0, 0, 0, 0, 0, 0, 0, 0, 0, 0, 0, 0<br/>0, 0, 0, 0, 0, 0, 0, 0, 0, 0, 0, 519, 0, 0<br/>0, 0, 0, 0, 0, 0, 0, 0, 0, 0, 0, 0, 0, 0<br/>0, 0, 0, 0, 0, 0, 0, 277, 0, 0, 0, 0, 0, 0<br/>0, 3453, 0, 0, 0, 0, 783, 0]<br/>class = 전립선증식증>, fillcolor="#ef8388"] ;
55 -> 56 ;
57 [label=<gini = 0.137<br/>samples = 3730<br/>value = [0, 0, 0, 0, 0, 0, 0, 0, 0, 0, 0, 0, 0, 0<br/>0, 0, 0, 0, 0, 0, 0, 0, 0, 0, 0, 0, 0, 0<br/>0, 0, 0, 0, 0, 0, 0, 0, 0, 0, 0, 0, 0, 0<br/>0, 0, 0, 0, 0, 0, 0, 0, 0, 0, 0, 0, 0, 0<br/>0, 0, 0, 0, 0, 0, 0, 0, 0, 0, 0, 0, 0, 0<br/>0, 0, 0, 0, 0, 0, 0, 277, 0, 0, 0, 0, 0, 0<br/>0, 3453, 0, 0, 0, 0, 0, 0]<br/>class = 전립선증식증>, fillcolor="#e74950"] ;
56 -> 57 ;
58 [label=<시야문제 &le; 0.5<br/>gini = 0.479<br/>samples = 1302<br/>value = [0, 0, 0, 0, 0, 0, 0, 0, 0, 0, 0, 0, 0, 0<br/>0, 0, 0, 0, 0, 0, 0, 0, 0, 0, 0, 0, 0, 0<br/>0, 0, 0, 0, 0, 0, 0, 0, 0, 0, 0, 0, 0, 0<br/>0, 0, 0, 0, 0, 0, 0, 0, 0, 0, 0, 519, 0, 0<br/>0, 0, 0, 0, 0, 0, 0, 0, 0, 0, 0, 0, 0, 0<br/>0, 0, 0, 0, 0, 0, 0, 0, 0, 0, 0, 0, 0, 0<br/>0, 0, 0, 0, 0, 0, 783, 0]<br/>class = 혈당치상승>, fillcolor="#f6cdbc"] ;
56 -> 58 ;
59 [label=<gini = 0.0<br/>samples = 519<br/>value = [0, 0, 0, 0, 0, 0, 0, 0, 0, 0, 0, 0, 0, 0<br/>0, 0, 0, 0, 0, 0, 0, 0, 0, 0, 0, 0, 0, 0<br/>0, 0, 0, 0, 0, 0, 0, 0, 0, 0, 0, 0, 0, 0<br/>0, 0, 0, 0, 0, 0, 0, 0, 0, 0, 0, 519, 0, 0<br/>0, 0, 0, 0, 0, 0, 0, 0, 0, 0, 0, 0, 0, 0<br/>0, 0, 0, 0, 0, 0, 0, 0, 0, 0, 0, 0, 0, 0<br/>0, 0, 0, 0, 0, 0, 0, 0]<br/>class = 만성 신장병>, fillcolor="#3950e5"] ;
58 -> 59 ;
60 [label=<gini = 0.0<br/>samples = 783<br/>value = [0, 0, 0, 0, 0, 0, 0, 0, 0, 0, 0, 0, 0, 0<br/>0, 0, 0, 0, 0, 0, 0, 0, 0, 0, 0, 0, 0, 0<br/>0, 0, 0, 0, 0, 0, 0, 0, 0, 0, 0, 0, 0, 0<br/>0, 0, 0, 0, 0, 0, 0, 0, 0, 0, 0, 0, 0, 0<br/>0, 0, 0, 0, 0, 0, 0, 0, 0, 0, 0, 0, 0, 0<br/>0, 0, 0, 0, 0, 0, 0, 0, 0, 0, 0, 0, 0, 0<br/>0, 0, 0, 0, 0, 0, 783, 0]<br/>class = 혈당치상승>, fillcolor="#e56a39"] ;
58 -> 60 ;
61 [label=<피로 &le; 0.5<br/>gini = 0.04<br/>samples = 2181<br/>value = [0, 0, 0, 0, 0, 0, 0, 0, 0, 0, 0, 0, 0, 0<br/>0, 0, 0, 0, 0, 0, 0, 44, 0, 0, 0, 0, 0, 0<br/>0, 0, 0, 0, 0, 0, 0, 0, 0, 0, 0, 0, 0, 0<br/>0, 0, 0, 0, 0, 0, 0, 0, 0, 0, 0, 0, 0, 0<br/>0, 0, 0, 2137, 0, 0, 0, 0, 0, 0, 0, 0, 0, 0<br/>0, 0, 0, 0, 0, 0, 0, 0, 0, 0, 0, 0, 0, 0<br/>0, 0, 0, 0, 0, 0, 0, 0]<br/>class = 방광염>, fillcolor="#673de6"] ;
55 -> 61 ;
62 [label=<gini = 0.0<br/>samples = 2137<br/>value = [0, 0, 0, 0, 0, 0, 0, 0, 0, 0, 0, 0, 0, 0<br/>0, 0, 0, 0, 0, 0, 0, 0, 0, 0, 0, 0, 0, 0<br/>0, 0, 0, 0, 0, 0, 0, 0, 0, 0, 0, 0, 0, 0<br/>0, 0, 0, 0, 0, 0, 0, 0, 0, 0, 0, 0, 0, 0<br/>0, 0, 0, 2137, 0, 0, 0, 0, 0, 0, 0, 0, 0, 0<br/>0, 0, 0, 0, 0, 0, 0, 0, 0, 0, 0, 0, 0, 0<br/>0, 0, 0, 0, 0, 0, 0, 0]<br/>class = 방광염>, fillcolor="#6439e5"] ;
61 -> 62 ;
63 [label=<gini = 0.0<br/>samples = 44<br/>value = [0, 0, 0, 0, 0, 0, 0, 0, 0, 0, 0, 0, 0, 0<br/>0, 0, 0, 0, 0, 0, 0, 44, 0, 0, 0, 0, 0, 0<br/>0, 0, 0, 0, 0, 0, 0, 0, 0, 0, 0, 0, 0, 0<br/>0, 0, 0, 0, 0, 0, 0, 0, 0, 0, 0, 0, 0, 0<br/>0, 0, 0, 0, 0, 0, 0, 0, 0, 0, 0, 0, 0, 0<br/>0, 0, 0, 0, 0, 0, 0, 0, 0, 0, 0, 0, 0, 0<br/>0, 0, 0, 0, 0, 0, 0, 0]<br/>class = 급성 신부전>, fillcolor="#5ee539"] ;
61 -> 63 ;
64 [label=<호흡문제 &le; 0.5<br/>gini = 0.488<br/>samples = 5104<br/>value = [0, 0, 0, 0, 0, 0, 0, 0, 0, 0, 0, 0, 0, 0<br/>0, 0, 0, 0, 0, 0, 0, 0, 0, 0, 0, 0, 1884, 0<br/>0, 0, 93, 0, 0, 0, 0, 0, 0, 0, 0, 0, 0, 0<br/>0, 0, 0, 3127, 0, 0, 0, 0, 0, 0, 0, 0, 0, 0<br/>0, 0, 0, 0, 0, 0, 0, 0, 0, 0, 0, 0, 0, 0<br/>0, 0, 0, 0, 0, 0, 0, 0, 0, 0, 0, 0, 0, 0<br/>0, 0, 0, 0, 0, 0, 0, 0]<br/>class = 다발성 및 급성 상기도감염>, fillcolor="#b3def5"] ;
6 -> 64 ;
65 [label=<gini = 0.0<br/>samples = 3127<br/>value = [0, 0, 0, 0, 0, 0, 0, 0, 0, 0, 0, 0, 0, 0<br/>0, 0, 0, 0, 0, 0, 0, 0, 0, 0, 0, 0, 0, 0<br/>0, 0, 0, 0, 0, 0, 0, 0, 0, 0, 0, 0, 0, 0<br/>0, 0, 0, 3127, 0, 0, 0, 0, 0, 0, 0, 0, 0, 0<br/>0, 0, 0, 0, 0, 0, 0, 0, 0, 0, 0, 0, 0, 0<br/>0, 0, 0, 0, 0, 0, 0, 0, 0, 0, 0, 0, 0, 0<br/>0, 0, 0, 0, 0, 0, 0, 0]<br/>class = 다발성 및 급성 상기도감염>, fillcolor="#39a9e5"] ;
64 -> 65 ;
66 [label=<목 통증 &le; 0.5<br/>gini = 0.09<br/>samples = 1977<br/>value = [0, 0, 0, 0, 0, 0, 0, 0, 0, 0, 0, 0, 0, 0<br/>0, 0, 0, 0, 0, 0, 0, 0, 0, 0, 0, 0, 1884, 0<br/>0, 0, 93, 0, 0, 0, 0, 0, 0, 0, 0, 0, 0, 0<br/>0, 0, 0, 0, 0, 0, 0, 0, 0, 0, 0, 0, 0, 0<br/>0, 0, 0, 0, 0, 0, 0, 0, 0, 0, 0, 0, 0, 0<br/>0, 0, 0, 0, 0, 0, 0, 0, 0, 0, 0, 0, 0, 0<br/>0, 0, 0, 0, 0, 0, 0, 0]<br/>class = 급성 후두염 및 기관염>, fillcolor="#43e653"] ;
64 -> 66 ;
67 [label=<gini = 0.0<br/>samples = 93<br/>value = [0, 0, 0, 0, 0, 0, 0, 0, 0, 0, 0, 0, 0, 0<br/>0, 0, 0, 0, 0, 0, 0, 0, 0, 0, 0, 0, 0, 0<br/>0, 0, 93, 0, 0, 0, 0, 0, 0, 0, 0, 0, 0, 0<br/>0, 0, 0, 0, 0, 0, 0, 0, 0, 0, 0, 0, 0, 0<br/>0, 0, 0, 0, 0, 0, 0, 0, 0, 0, 0, 0, 0, 0<br/>0, 0, 0, 0, 0, 0, 0, 0, 0, 0, 0, 0, 0, 0<br/>0, 0, 0, 0, 0, 0, 0, 0]<br/>class = 기타 간질성 폐질환>, fillcolor="#39e578"] ;
66 -> 67 ;
68 [label=<gini = 0.0<br/>samples = 1884<br/>value = [0, 0, 0, 0, 0, 0, 0, 0, 0, 0, 0, 0, 0, 0<br/>0, 0, 0, 0, 0, 0, 0, 0, 0, 0, 0, 0, 1884, 0<br/>0, 0, 0, 0, 0, 0, 0, 0, 0, 0, 0, 0, 0, 0<br/>0, 0, 0, 0, 0, 0, 0, 0, 0, 0, 0, 0, 0, 0<br/>0, 0, 0, 0, 0, 0, 0, 0, 0, 0, 0, 0, 0, 0<br/>0, 0, 0, 0, 0, 0, 0, 0, 0, 0, 0, 0, 0, 0<br/>0, 0, 0, 0, 0, 0, 0, 0]<br/>class = 급성 후두염 및 기관염>, fillcolor="#39e54a"] ;
66 -> 68 ;
69 [label=<눈 통증 &le; 0.5<br/>gini = 0.644<br/>samples = 8171<br/>value = [0, 0, 1956, 0, 0, 0, 0, 0, 0, 0, 4261, 1078, 0<br/>0, 0, 0, 0, 0, 0, 0, 0, 0, 0, 0, 0, 0, 0<br/>0, 0, 0, 0, 0, 0, 0, 0, 0, 0, 0, 0, 0, 0<br/>0, 0, 0, 0, 0, 0, 0, 0, 0, 0, 0, 0, 0, 0<br/>0, 79, 0, 0, 0, 0, 0, 0, 0, 0, 0, 0, 0, 0<br/>0, 0, 0, 0, 0, 797, 0, 0, 0, 0, 0, 0, 0, 0<br/>0, 0, 0, 0, 0, 0, 0, 0, 0]<br/>class = 결막염>, fillcolor="#f1f5b6"] ;
5 -> 69 ;
70 [label=<gini = 0.0<br/>samples = 4261<br/>value = [0, 0, 0, 0, 0, 0, 0, 0, 0, 0, 4261, 0, 0, 0<br/>0, 0, 0, 0, 0, 0, 0, 0, 0, 0, 0, 0, 0, 0<br/>0, 0, 0, 0, 0, 0, 0, 0, 0, 0, 0, 0, 0, 0<br/>0, 0, 0, 0, 0, 0, 0, 0, 0, 0, 0, 0, 0, 0<br/>0, 0, 0, 0, 0, 0, 0, 0, 0, 0, 0, 0, 0, 0<br/>0, 0, 0, 0, 0, 0, 0, 0, 0, 0, 0, 0, 0, 0<br/>0, 0, 0, 0, 0, 0, 0, 0]<br/>class = 결막염>, fillcolor="#dae539"] ;
69 -> 70 ;
71 [label=<gini = 0.632<br/>samples = 3910<br/>value = [0, 0, 1956, 0, 0, 0, 0, 0, 0, 0, 0, 1078, 0<br/>0, 0, 0, 0, 0, 0, 0, 0, 0, 0, 0, 0, 0, 0<br/>0, 0, 0, 0, 0, 0, 0, 0, 0, 0, 0, 0, 0, 0<br/>0, 0, 0, 0, 0, 0, 0, 0, 0, 0, 0, 0, 0, 0<br/>0, 79, 0, 0, 0, 0, 0, 0, 0, 0, 0, 0, 0, 0<br/>0, 0, 0, 0, 0, 797, 0, 0, 0, 0, 0, 0, 0, 0<br/>0, 0, 0, 0, 0, 0, 0, 0, 0]<br/>class = 각막염>, fillcolor="#f7dec2"] ;
69 -> 71 ;
72 [label=<두통 &le; 0.5<br/>gini = 0.478<br/>samples = 6355<br/>value = [0, 0, 0, 0, 0, 0, 0, 0, 0, 0, 0, 0, 0, 0<br/>0, 0, 0, 0, 0, 0, 2508, 0, 0, 0, 0, 0, 0, 0<br/>0, 0, 0, 0, 0, 0, 0, 0, 0, 0, 0, 0, 0, 0<br/>0, 0, 0, 0, 0, 0, 0, 0, 0, 0, 0, 0, 0, 0<br/>0, 0, 0, 0, 0, 0, 3847, 0, 0, 0, 0, 0, 0, 0<br/>0, 0, 0, 0, 0, 0, 0, 0, 0, 0, 0, 0, 0, 0<br/>0, 0, 0, 0, 0, 0, 0, 0]<br/>class = 비염>, fillcolor="#d5baf6"] ;
4 -> 72 ;
73 [label=<gini = 0.0<br/>samples = 3847<br/>value = [0, 0, 0, 0, 0, 0, 0, 0, 0, 0, 0, 0, 0, 0<br/>0, 0, 0, 0, 0, 0, 0, 0, 0, 0, 0, 0, 0, 0<br/>0, 0, 0, 0, 0, 0, 0, 0, 0, 0, 0, 0, 0, 0<br/>0, 0, 0, 0, 0, 0, 0, 0, 0, 0, 0, 0, 0, 0<br/>0, 0, 0, 0, 0, 0, 3847, 0, 0, 0, 0, 0, 0, 0<br/>0, 0, 0, 0, 0, 0, 0, 0, 0, 0, 0, 0, 0, 0<br/>0, 0, 0, 0, 0, 0, 0, 0]<br/>class = 비염>, fillcolor="#8639e5"] ;
72 -> 73 ;
74 [label=<gini = 0.0<br/>samples = 2508<br/>value = [0, 0, 0, 0, 0, 0, 0, 0, 0, 0, 0, 0, 0, 0<br/>0, 0, 0, 0, 0, 0, 2508, 0, 0, 0, 0, 0, 0, 0<br/>0, 0, 0, 0, 0, 0, 0, 0, 0, 0, 0, 0, 0, 0<br/>0, 0, 0, 0, 0, 0, 0, 0, 0, 0, 0, 0, 0, 0<br/>0, 0, 0, 0, 0, 0, 0, 0, 0, 0, 0, 0, 0, 0<br/>0, 0, 0, 0, 0, 0, 0, 0, 0, 0, 0, 0, 0, 0<br/>0, 0, 0, 0, 0, 0, 0, 0]<br/>class = 급성 비인두염[감기]>, fillcolor="#6ae539"] ;
72 -> 74 ;
75 [label=<구토 및 구역질 &le; 0.5<br/>gini = 0.442<br/>samples = 9105<br/>value = [0, 0, 0, 0, 1313, 0, 0, 0, 0, 0, 0, 0, 0, 0<br/>0, 0, 0, 0, 0, 0, 0, 0, 0, 0, 0, 0, 0, 0<br/>0, 856, 0, 0, 0, 0, 0, 0, 0, 0, 0, 0, 0, 0<br/>0, 0, 0, 0, 0, 0, 0, 0, 0, 0, 0, 0, 0, 0<br/>0, 0, 0, 0, 0, 0, 0, 0, 0, 0, 0, 0, 0, 0<br/>0, 0, 0, 0, 0, 0, 0, 0, 324, 0, 0, 6612, 0<br/>0, 0, 0, 0, 0, 0, 0, 0, 0]<br/>class = 위염 및 십이지장염>, fillcolor="#ed789d"] ;
3 -> 75 ;
76 [label=<피로 &le; 0.5<br/>gini = 0.478<br/>samples = 2169<br/>value = [0, 0, 0, 0, 1313, 0, 0, 0, 0, 0, 0, 0, 0, 0<br/>0, 0, 0, 0, 0, 0, 0, 0, 0, 0, 0, 0, 0, 0<br/>0, 856, 0, 0, 0, 0, 0, 0, 0, 0, 0, 0, 0, 0<br/>0, 0, 0, 0, 0, 0, 0, 0, 0, 0, 0, 0, 0, 0<br/>0, 0, 0, 0, 0, 0, 0, 0, 0, 0, 0, 0, 0, 0<br/>0, 0, 0, 0, 0, 0, 0, 0, 0, 0, 0, 0, 0, 0<br/>0, 0, 0, 0, 0, 0, 0, 0]<br/>class = 간의 기타 질환>, fillcolor="#f6e2ba"] ;
75 -> 76 ;
77 [label=<gini = 0.0<br/>samples = 856<br/>value = [0, 0, 0, 0, 0, 0, 0, 0, 0, 0, 0, 0, 0, 0<br/>0, 0, 0, 0, 0, 0, 0, 0, 0, 0, 0, 0, 0, 0<br/>0, 856, 0, 0, 0, 0, 0, 0, 0, 0, 0, 0, 0, 0<br/>0, 0, 0, 0, 0, 0, 0, 0, 0, 0, 0, 0, 0, 0<br/>0, 0, 0, 0, 0, 0, 0, 0, 0, 0, 0, 0, 0, 0<br/>0, 0, 0, 0, 0, 0, 0, 0, 0, 0, 0, 0, 0, 0<br/>0, 0, 0, 0, 0, 0, 0, 0]<br/>class = 기능성 소화불량>, fillcolor="#39e56d"] ;
76 -> 77 ;
78 [label=<gini = 0.0<br/>samples = 1313<br/>value = [0, 0, 0, 0, 1313, 0, 0, 0, 0, 0, 0, 0, 0, 0<br/>0, 0, 0, 0, 0, 0, 0, 0, 0, 0, 0, 0, 0, 0<br/>0, 0, 0, 0, 0, 0, 0, 0, 0, 0, 0, 0, 0, 0<br/>0, 0, 0, 0, 0, 0, 0, 0, 0, 0, 0, 0, 0, 0<br/>0, 0, 0, 0, 0, 0, 0, 0, 0, 0, 0, 0, 0, 0<br/>0, 0, 0, 0, 0, 0, 0, 0, 0, 0, 0, 0, 0, 0<br/>0, 0, 0, 0, 0, 0, 0, 0]<br/>class = 간의 기타 질환>, fillcolor="#e5ac39"] ;
76 -> 78 ;
79 [label=<gini = 0.089<br/>samples = 6936<br/>value = [0, 0, 0, 0, 0, 0, 0, 0, 0, 0, 0, 0, 0, 0<br/>0, 0, 0, 0, 0, 0, 0, 0, 0, 0, 0, 0, 0, 0<br/>0, 0, 0, 0, 0, 0, 0, 0, 0, 0, 0, 0, 0, 0<br/>0, 0, 0, 0, 0, 0, 0, 0, 0, 0, 0, 0, 0, 0<br/>0, 0, 0, 0, 0, 0, 0, 0, 0, 0, 0, 0, 0, 0<br/>0, 0, 0, 0, 0, 0, 0, 0, 324, 0, 0, 6612, 0<br/>0, 0, 0, 0, 0, 0, 0, 0, 0]<br/>class = 위염 및 십이지장염>, fillcolor="#e64376"] ;
75 -> 79 ;
80 [label=<배뇨문제 &le; 0.5<br/>gini = 0.589<br/>samples = 12434<br/>value = [67, 7705, 0, 202, 0, 0, 0, 358, 0, 212, 0, 0<br/>0, 0, 0, 0, 0, 0, 0, 0, 0, 0, 0, 0, 0, 0<br/>0, 0, 0, 0, 0, 1039, 0, 0, 0, 0, 0, 0, 0, 0<br/>0, 64, 0, 0, 0, 0, 0, 0, 0, 0, 58, 0, 0, 0<br/>0, 0, 0, 0, 0, 0, 0, 41, 0, 0, 0, 0, 989, 0<br/>0, 0, 0, 0, 0, 0, 0, 0, 0, 0, 0, 0, 1298, 0<br/>401, 0, 0, 0, 0, 0, 0, 0, 0, 0]<br/>class = 2형 당뇨병>, fillcolor="#f0bb8d"] ;
2 -> 80 ;
81 [label=<구토 및 구역질 &le; 0.5<br/>gini = 0.759<br/>samples = 3615<br/>value = [0, 0, 0, 202, 0, 0, 0, 358, 0, 212, 0, 0, 0<br/>0, 0, 0, 0, 0, 0, 0, 0, 0, 0, 0, 0, 0, 0<br/>0, 0, 0, 0, 1039, 0, 0, 0, 0, 0, 0, 0, 0, 0<br/>64, 0, 0, 0, 0, 0, 0, 0, 0, 0, 0, 0, 0, 0<br/>0, 0, 0, 0, 0, 0, 41, 0, 0, 0, 0, 0, 0, 0<br/>0, 0, 0, 0, 0, 0, 0, 0, 0, 0, 0, 1298, 0<br/>401, 0, 0, 0, 0, 0, 0, 0, 0, 0]<br/>class = 위궤양>, fillcolor="#fcebf1"] ;
80 -> 81 ;
82 [label=<심장박동수변화 &le; 0.5<br/>gini = 0.646<br/>samples = 1916<br/>value = [0, 0, 0, 202, 0, 0, 0, 358, 0, 212, 0, 0, 0<br/>0, 0, 0, 0, 0, 0, 0, 0, 0, 0, 0, 0, 0, 0<br/>0, 0, 0, 0, 1039, 0, 0, 0, 0, 0, 0, 0, 0, 0<br/>64, 0, 0, 0, 0, 0, 0, 0, 0, 0, 0, 0, 0, 0<br/>0, 0, 0, 0, 0, 0, 41, 0, 0, 0, 0, 0, 0, 0<br/>0, 0, 0, 0, 0, 0, 0, 0, 0, 0, 0, 0, 0, 0<br/>0, 0, 0, 0, 0, 0, 0, 0, 0]<br/>class = 기타 갑상선기능저하증>, fillcolor="#a8f4c9"] ;
81 -> 82 ;
83 [label=<체온조절문제 &le; 0.5<br/>gini = 0.378<br/>samples = 1346<br/>value = [0, 0, 0, 202, 0, 0, 0, 0, 0, 0, 0, 0, 0, 0<br/>0, 0, 0, 0, 0, 0, 0, 0, 0, 0, 0, 0, 0, 0<br/>0, 0, 0, 1039, 0, 0, 0, 0, 0, 0, 0, 0, 0, 64<br/>0, 0, 0, 0, 0, 0, 0, 0, 0, 0, 0, 0, 0, 0<br/>0, 0, 0, 0, 0, 41, 0, 0, 0, 0, 0, 0, 0, 0<br/>0, 0, 0, 0, 0, 0, 0, 0, 0, 0, 0, 0, 0, 0<br/>0, 0, 0, 0, 0, 0, 0, 0]<br/>class = 기타 갑상선기능저하증>, fillcolor="#6eeca4"] ;
82 -> 83 ;
84 [label=<피부문제 &le; 0.5<br/>gini = 0.506<br/>samples = 307<br/>value = [0, 0, 0, 202, 0, 0, 0, 0, 0, 0, 0, 0, 0, 0<br/>0, 0, 0, 0, 0, 0, 0, 0, 0, 0, 0, 0, 0, 0<br/>0, 0, 0, 0, 0, 0, 0, 0, 0, 0, 0, 0, 0, 64<br/>0, 0, 0, 0, 0, 0, 0, 0, 0, 0, 0, 0, 0, 0<br/>0, 0, 0, 0, 0, 41, 0, 0, 0, 0, 0, 0, 0, 0<br/>0, 0, 0, 0, 0, 0, 0, 0, 0, 0, 0, 0, 0, 0<br/>0, 0, 0, 0, 0, 0, 0, 0]<br/>class = 간 및 간내 담관의 악성 신생물>, fillcolor="#f0c98f"] ;
83 -> 84 ;
85 [label=<발열 &le; 0.5<br/>gini = 0.476<br/>samples = 105<br/>value = [0, 0, 0, 0, 0, 0, 0, 0, 0, 0, 0, 0, 0, 0<br/>0, 0, 0, 0, 0, 0, 0, 0, 0, 0, 0, 0, 0, 0<br/>0, 0, 0, 0, 0, 0, 0, 0, 0, 0, 0, 0, 0, 64<br/>0, 0, 0, 0, 0, 0, 0, 0, 0, 0, 0, 0, 0, 0<br/>0, 0, 0, 0, 0, 41, 0, 0, 0, 0, 0, 0, 0, 0<br/>0, 0, 0, 0, 0, 0, 0, 0, 0, 0, 0, 0, 0, 0<br/>0, 0, 0, 0, 0, 0, 0, 0]<br/>class = 기타 전신 증상 및 징후>, fillcolor="#b8f1f6"] ;
84 -> 85 ;
86 [label=<gini = 0.0<br/>samples = 41<br/>value = [0, 0, 0, 0, 0, 0, 0, 0, 0, 0, 0, 0, 0, 0<br/>0, 0, 0, 0, 0, 0, 0, 0, 0, 0, 0, 0, 0, 0<br/>0, 0, 0, 0, 0, 0, 0, 0, 0, 0, 0, 0, 0, 0<br/>0, 0, 0, 0, 0, 0, 0, 0, 0, 0, 0, 0, 0, 0<br/>0, 0, 0, 0, 0, 41, 0, 0, 0, 0, 0, 0, 0, 0<br/>0, 0, 0, 0, 0, 0, 0, 0, 0, 0, 0, 0, 0, 0<br/>0, 0, 0, 0, 0, 0, 0, 0]<br/>class = 부신의 기타 장애>, fillcolor="#7b39e5"] ;
85 -> 86 ;
87 [label=<gini = 0.0<br/>samples = 64<br/>value = [0, 0, 0, 0, 0, 0, 0, 0, 0, 0, 0, 0, 0, 0<br/>0, 0, 0, 0, 0, 0, 0, 0, 0, 0, 0, 0, 0, 0<br/>0, 0, 0, 0, 0, 0, 0, 0, 0, 0, 0, 0, 0, 64<br/>0, 0, 0, 0, 0, 0, 0, 0, 0, 0, 0, 0, 0, 0<br/>0, 0, 0, 0, 0, 0, 0, 0, 0, 0, 0, 0, 0, 0<br/>0, 0, 0, 0, 0, 0, 0, 0, 0, 0, 0, 0, 0, 0<br/>0, 0, 0, 0, 0, 0, 0, 0]<br/>class = 기타 전신 증상 및 징후>, fillcolor="#39d7e5"] ;
85 -> 87 ;
88 [label=<gini = 0.0<br/>samples = 202<br/>value = [0, 0, 0, 202, 0, 0, 0, 0, 0, 0, 0, 0, 0, 0<br/>0, 0, 0, 0, 0, 0, 0, 0, 0, 0, 0, 0, 0, 0<br/>0, 0, 0, 0, 0, 0, 0, 0, 0, 0, 0, 0, 0, 0<br/>0, 0, 0, 0, 0, 0, 0, 0, 0, 0, 0, 0, 0, 0<br/>0, 0, 0, 0, 0, 0, 0, 0, 0, 0, 0, 0, 0, 0<br/>0, 0, 0, 0, 0, 0, 0, 0, 0, 0, 0, 0, 0, 0<br/>0, 0, 0, 0, 0, 0, 0, 0]<br/>class = 간 및 간내 담관의 악성 신생물>, fillcolor="#e5a039"] ;
84 -> 88 ;
89 [label=<gini = 0.0<br/>samples = 1039<br/>value = [0, 0, 0, 0, 0, 0, 0, 0, 0, 0, 0, 0, 0, 0<br/>0, 0, 0, 0, 0, 0, 0, 0, 0, 0, 0, 0, 0, 0<br/>0, 0, 0, 1039, 0, 0, 0, 0, 0, 0, 0, 0, 0, 0<br/>0, 0, 0, 0, 0, 0, 0, 0, 0, 0, 0, 0, 0, 0<br/>0, 0, 0, 0, 0, 0, 0, 0, 0, 0, 0, 0, 0, 0<br/>0, 0, 0, 0, 0, 0, 0, 0, 0, 0, 0, 0, 0, 0<br/>0, 0, 0, 0, 0, 0, 0, 0]<br/>class = 기타 갑상선기능저하증>, fillcolor="#39e583"] ;
83 -> 89 ;
90 [label=<피로 &le; 0.5<br/>gini = 0.467<br/>samples = 570<br/>value = [0, 0, 0, 0, 0, 0, 0, 358, 0, 212, 0, 0, 0, 0<br/>0, 0, 0, 0, 0, 0, 0, 0, 0, 0, 0, 0, 0, 0<br/>0, 0, 0, 0, 0, 0, 0, 0, 0, 0, 0, 0, 0, 0<br/>0, 0, 0, 0, 0, 0, 0, 0, 0, 0, 0, 0, 0, 0<br/>0, 0, 0, 0, 0, 0, 0, 0, 0, 0, 0, 0, 0, 0<br/>0, 0, 0, 0, 0, 0, 0, 0, 0, 0, 0, 0, 0, 0<br/>0, 0, 0, 0, 0, 0, 0, 0]<br/>class = 갑상선독증[갑상선기능항진증]>, fillcolor="#f4ebae"] ;
82 -> 90 ;
91 [label=<gini = 0.0<br/>samples = 358<br/>value = [0, 0, 0, 0, 0, 0, 0, 358, 0, 0, 0, 0, 0, 0<br/>0, 0, 0, 0, 0, 0, 0, 0, 0, 0, 0, 0, 0, 0<br/>0, 0, 0, 0, 0, 0, 0, 0, 0, 0, 0, 0, 0, 0<br/>0, 0, 0, 0, 0, 0, 0, 0, 0, 0, 0, 0, 0, 0<br/>0, 0, 0, 0, 0, 0, 0, 0, 0, 0, 0, 0, 0, 0<br/>0, 0, 0, 0, 0, 0, 0, 0, 0, 0, 0, 0, 0, 0<br/>0, 0, 0, 0, 0, 0, 0, 0]<br/>class = 갑상선독증[갑상선기능항진증]>, fillcolor="#e5ce39"] ;
90 -> 91 ;
92 [label=<gini = 0.0<br/>samples = 212<br/>value = [0, 0, 0, 0, 0, 0, 0, 0, 0, 212, 0, 0, 0, 0<br/>0, 0, 0, 0, 0, 0, 0, 0, 0, 0, 0, 0, 0, 0<br/>0, 0, 0, 0, 0, 0, 0, 0, 0, 0, 0, 0, 0, 0<br/>0, 0, 0, 0, 0, 0, 0, 0, 0, 0, 0, 0, 0, 0<br/>0, 0, 0, 0, 0, 0, 0, 0, 0, 0, 0, 0, 0, 0<br/>0, 0, 0, 0, 0, 0, 0, 0, 0, 0, 0, 0, 0, 0<br/>0, 0, 0, 0, 0, 0, 0, 0]<br/>class = 갑상선의 기타 장애>, fillcolor="#e5e539"] ;
90 -> 92 ;
93 [label=<소화문제 &le; 0.5<br/>gini = 0.361<br/>samples = 1699<br/>value = [0, 0, 0, 0, 0, 0, 0, 0, 0, 0, 0, 0, 0, 0<br/>0, 0, 0, 0, 0, 0, 0, 0, 0, 0, 0, 0, 0, 0<br/>0, 0, 0, 0, 0, 0, 0, 0, 0, 0, 0, 0, 0, 0<br/>0, 0, 0, 0, 0, 0, 0, 0, 0, 0, 0, 0, 0, 0<br/>0, 0, 0, 0, 0, 0, 0, 0, 0, 0, 0, 0, 0, 0<br/>0, 0, 0, 0, 0, 0, 0, 0, 0, 0, 1298, 0, 401<br/>0, 0, 0, 0, 0, 0, 0, 0, 0]<br/>class = 위궤양>, fillcolor="#ed76a2"] ;
81 -> 93 ;
94 [label=<gini = 0.0<br/>samples = 1298<br/>value = [0, 0, 0, 0, 0, 0, 0, 0, 0, 0, 0, 0, 0, 0<br/>0, 0, 0, 0, 0, 0, 0, 0, 0, 0, 0, 0, 0, 0<br/>0, 0, 0, 0, 0, 0, 0, 0, 0, 0, 0, 0, 0, 0<br/>0, 0, 0, 0, 0, 0, 0, 0, 0, 0, 0, 0, 0, 0<br/>0, 0, 0, 0, 0, 0, 0, 0, 0, 0, 0, 0, 0, 0<br/>0, 0, 0, 0, 0, 0, 0, 0, 0, 0, 1298, 0, 0, 0<br/>0, 0, 0, 0, 0, 0, 0, 0]<br/>class = 위궤양>, fillcolor="#e53978"] ;
93 -> 94 ;
95 [label=<gini = 0.0<br/>samples = 401<br/>value = [0, 0, 0, 0, 0, 0, 0, 0, 0, 0, 0, 0, 0, 0<br/>0, 0, 0, 0, 0, 0, 0, 0, 0, 0, 0, 0, 0, 0<br/>0, 0, 0, 0, 0, 0, 0, 0, 0, 0, 0, 0, 0, 0<br/>0, 0, 0, 0, 0, 0, 0, 0, 0, 0, 0, 0, 0, 0<br/>0, 0, 0, 0, 0, 0, 0, 0, 0, 0, 0, 0, 0, 0<br/>0, 0, 0, 0, 0, 0, 0, 0, 0, 0, 0, 0, 401, 0<br/>0, 0, 0, 0, 0, 0, 0, 0]<br/>class = 위의 악성 신생물>, fillcolor="#e53964"] ;
93 -> 95 ;
96 [label=<갈증 &le; 0.5<br/>gini = 0.224<br/>samples = 8819<br/>value = [67, 7705, 0, 0, 0, 0, 0, 0, 0, 0, 0, 0, 0, 0<br/>0, 0, 0, 0, 0, 0, 0, 0, 0, 0, 0, 0, 0, 0<br/>0, 0, 0, 0, 0, 0, 0, 0, 0, 0, 0, 0, 0, 0<br/>0, 0, 0, 0, 0, 0, 0, 0, 58, 0, 0, 0, 0, 0<br/>0, 0, 0, 0, 0, 0, 0, 0, 0, 0, 989, 0, 0, 0<br/>0, 0, 0, 0, 0, 0, 0, 0, 0, 0, 0, 0, 0, 0<br/>0, 0, 0, 0, 0, 0, 0, 0]<br/>class = 2형 당뇨병>, fillcolor="#e99a55"] ;
80 -> 96 ;
97 [label=<gini = 0.0<br/>samples = 7705<br/>value = [0, 7705, 0, 0, 0, 0, 0, 0, 0, 0, 0, 0, 0, 0<br/>0, 0, 0, 0, 0, 0, 0, 0, 0, 0, 0, 0, 0, 0<br/>0, 0, 0, 0, 0, 0, 0, 0, 0, 0, 0, 0, 0, 0<br/>0, 0, 0, 0, 0, 0, 0, 0, 0, 0, 0, 0, 0, 0<br/>0, 0, 0, 0, 0, 0, 0, 0, 0, 0, 0, 0, 0, 0<br/>0, 0, 0, 0, 0, 0, 0, 0, 0, 0, 0, 0, 0, 0<br/>0, 0, 0, 0, 0, 0, 0, 0]<br/>class = 2형 당뇨병>, fillcolor="#e58939"] ;
96 -> 97 ;
98 [label=<gini = 0.205<br/>samples = 1114<br/>value = [67, 0, 0, 0, 0, 0, 0, 0, 0, 0, 0, 0, 0, 0<br/>0, 0, 0, 0, 0, 0, 0, 0, 0, 0, 0, 0, 0, 0<br/>0, 0, 0, 0, 0, 0, 0, 0, 0, 0, 0, 0, 0, 0<br/>0, 0, 0, 0, 0, 0, 0, 0, 58, 0, 0, 0, 0, 0<br/>0, 0, 0, 0, 0, 0, 0, 0, 0, 0, 989, 0, 0, 0<br/>0, 0, 0, 0, 0, 0, 0, 0, 0, 0, 0, 0, 0, 0<br/>0, 0, 0, 0, 0, 0, 0, 0]<br/>class = 상세불명의 당뇨병>, fillcolor="#bd51e8"] ;
96 -> 98 ;
99 [label=<발열 &le; 0.5<br/>gini = 0.096<br/>samples = 8458<br/>value = [0, 0, 0, 0, 0, 0, 0, 0, 0, 0, 0, 0, 0, 0<br/>0, 0, 0, 0, 0, 0, 0, 0, 0, 0, 0, 0, 0, 0<br/>8033, 0, 0, 0, 0, 0, 349, 0, 0, 0, 0, 0, 0<br/>0, 0, 0, 0, 0, 0, 0, 0, 0, 0, 0, 0, 0, 0<br/>0, 0, 0, 0, 0, 0, 0, 0, 0, 0, 0, 0, 0, 0<br/>0, 0, 0, 0, 0, 0, 0, 0, 0, 0, 0, 0, 0, 0<br/>0, 0, 0, 0, 0, 0, 76, 0, 0]<br/>class = 기관지염>, fillcolor="#43e669"] ;
1 -> 99 ;
100 [label=<체중변화 &le; 0.5<br/>gini = 0.294<br/>samples = 425<br/>value = [0, 0, 0, 0, 0, 0, 0, 0, 0, 0, 0, 0, 0, 0<br/>0, 0, 0, 0, 0, 0, 0, 0, 0, 0, 0, 0, 0, 0<br/>0, 0, 0, 0, 0, 0, 349, 0, 0, 0, 0, 0, 0, 0<br/>0, 0, 0, 0, 0, 0, 0, 0, 0, 0, 0, 0, 0, 0<br/>0, 0, 0, 0, 0, 0, 0, 0, 0, 0, 0, 0, 0, 0<br/>0, 0, 0, 0, 0, 0, 0, 0, 0, 0, 0, 0, 0, 0<br/>0, 0, 0, 0, 0, 76, 0, 0]<br/>class = 기타 만성 폐쇄성 폐질환>, fillcolor="#64ebb9"] ;
99 -> 100 ;
101 [label=<gini = 0.0<br/>samples = 349<br/>value = [0, 0, 0, 0, 0, 0, 0, 0, 0, 0, 0, 0, 0, 0<br/>0, 0, 0, 0, 0, 0, 0, 0, 0, 0, 0, 0, 0, 0<br/>0, 0, 0, 0, 0, 0, 349, 0, 0, 0, 0, 0, 0, 0<br/>0, 0, 0, 0, 0, 0, 0, 0, 0, 0, 0, 0, 0, 0<br/>0, 0, 0, 0, 0, 0, 0, 0, 0, 0, 0, 0, 0, 0<br/>0, 0, 0, 0, 0, 0, 0, 0, 0, 0, 0, 0, 0, 0<br/>0, 0, 0, 0, 0, 0, 0, 0]<br/>class = 기타 만성 폐쇄성 폐질환>, fillcolor="#39e5a6"] ;
100 -> 101 ;
102 [label=<gini = 0.0<br/>samples = 76<br/>value = [0, 0, 0, 0, 0, 0, 0, 0, 0, 0, 0, 0, 0, 0<br/>0, 0, 0, 0, 0, 0, 0, 0, 0, 0, 0, 0, 0, 0<br/>0, 0, 0, 0, 0, 0, 0, 0, 0, 0, 0, 0, 0, 0<br/>0, 0, 0, 0, 0, 0, 0, 0, 0, 0, 0, 0, 0, 0<br/>0, 0, 0, 0, 0, 0, 0, 0, 0, 0, 0, 0, 0, 0<br/>0, 0, 0, 0, 0, 0, 0, 0, 0, 0, 0, 0, 0, 0<br/>0, 0, 0, 0, 0, 76, 0, 0]<br/>class = 폐기종>, fillcolor="#e55e39"] ;
100 -> 102 ;
103 [label=<gini = 0.0<br/>samples = 8033<br/>value = [0, 0, 0, 0, 0, 0, 0, 0, 0, 0, 0, 0, 0, 0<br/>0, 0, 0, 0, 0, 0, 0, 0, 0, 0, 0, 0, 0, 0<br/>8033, 0, 0, 0, 0, 0, 0, 0, 0, 0, 0, 0, 0, 0<br/>0, 0, 0, 0, 0, 0, 0, 0, 0, 0, 0, 0, 0, 0<br/>0, 0, 0, 0, 0, 0, 0, 0, 0, 0, 0, 0, 0, 0<br/>0, 0, 0, 0, 0, 0, 0, 0, 0, 0, 0, 0, 0, 0<br/>0, 0, 0, 0, 0, 0, 0, 0]<br/>class = 기관지염>, fillcolor="#39e561"] ;
99 -> 103 ;
104 [label=<시야문제 &le; 0.5<br/>gini = 0.633<br/>samples = 29693<br/>value = [0, 0, 0, 0, 0, 0, 0, 0, 0, 0, 0, 0, 0, 0<br/>0, 674, 0, 0, 0, 0, 0, 0, 294, 0, 0, 0, 0<br/>282, 0, 0, 0, 0, 0, 0, 0, 0, 0, 0, 0, 265, 0<br/>0, 438, 0, 0, 0, 0, 117, 0, 0, 0, 0, 0, 0<br/>569, 0, 0, 0, 73, 0, 16085, 0, 0, 324, 0, 0, 0<br/>0, 110, 40, 0, 0, 82, 0, 0, 0, 0, 0, 0, 7708<br/>0, 0, 0, 0, 0, 0, 0, 939, 0, 0, 0, 1693]<br/>class = 본태성(원발성) 고혈압>, fillcolor="#c8b4f5"] ;
0 -> 104 [labeldistance=2.5, labelangle=-45, headlabel="False"] ;
105 [label=<목 분비물 및 이물감 &le; 0.5<br/>gini = 0.652<br/>samples = 13608<br/>value = [0, 0, 0, 0, 0, 0, 0, 0, 0, 0, 0, 0, 0, 0<br/>0, 674, 0, 0, 0, 0, 0, 0, 294, 0, 0, 0, 0<br/>282, 0, 0, 0, 0, 0, 0, 0, 0, 0, 0, 0, 265, 0<br/>0, 438, 0, 0, 0, 0, 117, 0, 0, 0, 0, 0, 0<br/>569, 0, 0, 0, 73, 0, 0, 0, 0, 324, 0, 0, 0<br/>0, 110, 40, 0, 0, 82, 0, 0, 0, 0, 0, 0, 7708<br/>0, 0, 0, 0, 0, 0, 0, 939, 0, 0, 0, 1693]<br/>class = 위-식도역류병>, fillcolor="#f29bc0"] ;
104 -> 105 ;
106 [label=<피로 &le; 0.5<br/>gini = 0.854<br/>samples = 5900<br/>value = [0, 0, 0, 0, 0, 0, 0, 0, 0, 0, 0, 0, 0, 0<br/>0, 674, 0, 0, 0, 0, 0, 0, 294, 0, 0, 0, 0<br/>282, 0, 0, 0, 0, 0, 0, 0, 0, 0, 0, 0, 265, 0<br/>0, 438, 0, 0, 0, 0, 117, 0, 0, 0, 0, 0, 0<br/>569, 0, 0, 0, 73, 0, 0, 0, 0, 324, 0, 0, 0<br/>0, 110, 40, 0, 0, 82, 0, 0, 0, 0, 0, 0, 0, 0<br/>0, 0, 0, 0, 0, 0, 939, 0, 0, 0, 1693]<br/>class = 협심증>, fillcolor="#fbeae1"] ;
105 -> 106 ;
107 [label=<발열 &le; 0.5<br/>gini = 0.822<br/>samples = 2847<br/>value = [0, 0, 0, 0, 0, 0, 0, 0, 0, 0, 0, 0, 0, 0<br/>0, 0, 0, 0, 0, 0, 0, 0, 294, 0, 0, 0, 0, 282<br/>0, 0, 0, 0, 0, 0, 0, 0, 0, 0, 0, 265, 0, 0<br/>438, 0, 0, 0, 0, 0, 0, 0, 0, 0, 0, 0, 0, 0<br/>0, 0, 73, 0, 0, 0, 0, 324, 0, 0, 0, 0, 110<br/>40, 0, 0, 82, 0, 0, 0, 0, 0, 0, 0, 0, 0, 0<br/>0, 0, 0, 0, 939, 0, 0, 0, 0]<br/>class = 천식>, fillcolor="#fad9d6"] ;
106 -> 107 ;
108 [label=<기침 &le; 0.5<br/>gini = 0.79<br/>samples = 2523<br/>value = [0, 0, 0, 0, 0, 0, 0, 0, 0, 0, 0, 0, 0, 0<br/>0, 0, 0, 0, 0, 0, 0, 0, 294, 0, 0, 0, 0, 282<br/>0, 0, 0, 0, 0, 0, 0, 0, 0, 0, 0, 265, 0, 0<br/>438, 0, 0, 0, 0, 0, 0, 0, 0, 0, 0, 0, 0, 0<br/>0, 0, 73, 0, 0, 0, 0, 0, 0, 0, 0, 0, 110, 40<br/>0, 0, 82, 0, 0, 0, 0, 0, 0, 0, 0, 0, 0, 0<br/>0, 0, 0, 939, 0, 0, 0, 0]<br/>class = 천식>, fillcolor="#f9d3cf"] ;
107 -> 108 ;
109 [label=<구토 및 구역질 &le; 0.5<br/>gini = 0.756<br/>samples = 864<br/>value = [0, 0, 0, 0, 0, 0, 0, 0, 0, 0, 0, 0, 0, 0<br/>0, 0, 0, 0, 0, 0, 0, 0, 294, 0, 0, 0, 0, 0<br/>0, 0, 0, 0, 0, 0, 0, 0, 0, 0, 0, 265, 0, 0<br/>0, 0, 0, 0, 0, 0, 0, 0, 0, 0, 0, 0, 0, 0<br/>0, 0, 73, 0, 0, 0, 0, 0, 0, 0, 0, 0, 110, 40<br/>0, 0, 82, 0, 0, 0, 0, 0, 0, 0, 0, 0, 0, 0<br/>0, 0, 0, 0, 0, 0, 0, 0]<br/>class = 급성 심근경색증>, fillcolor="#f7fef5"] ;
108 -> 109 ;
110 [label=<호흡문제 &le; 0.5<br/>gini = 0.604<br/>samples = 460<br/>value = [0, 0, 0, 0, 0, 0, 0, 0, 0, 0, 0, 0, 0, 0<br/>0, 0, 0, 0, 0, 0, 0, 0, 0, 0, 0, 0, 0, 0<br/>0, 0, 0, 0, 0, 0, 0, 0, 0, 0, 0, 265, 0, 0<br/>0, 0, 0, 0, 0, 0, 0, 0, 0, 0, 0, 0, 0, 0<br/>0, 0, 73, 0, 0, 0, 0, 0, 0, 0, 0, 0, 0, 40<br/>0, 0, 82, 0, 0, 0, 0, 0, 0, 0, 0, 0, 0, 0<br/>0, 0, 0, 0, 0, 0, 0, 0]<br/>class = 기타 심장부정맥>, fillcolor="#9ff2ee"] ;
109 -> 110 ;
111 [label=<심장박동수변화 &le; 0.5<br/>gini = 0.457<br/>samples = 113<br/>value = [0, 0, 0, 0, 0, 0, 0, 0, 0, 0, 0, 0, 0, 0<br/>0, 0, 0, 0, 0, 0, 0, 0, 0, 0, 0, 0, 0, 0<br/>0, 0, 0, 0, 0, 0, 0, 0, 0, 0, 0, 0, 0, 0<br/>0, 0, 0, 0, 0, 0, 0, 0, 0, 0, 0, 0, 0, 0<br/>0, 0, 73, 0, 0, 0, 0, 0, 0, 0, 0, 0, 0, 40<br/>0, 0, 0, 0, 0, 0, 0, 0, 0, 0, 0, 0, 0, 0<br/>0, 0, 0, 0, 0, 0, 0, 0]<br/>class = 발작성 빈맥>, fillcolor="#b4a5f3"] ;
110 -> 111 ;
112 [label=<gini = 0.0<br/>samples = 40<br/>value = [0, 0, 0, 0, 0, 0, 0, 0, 0, 0, 0, 0, 0, 0<br/>0, 0, 0, 0, 0, 0, 0, 0, 0, 0, 0, 0, 0, 0<br/>0, 0, 0, 0, 0, 0, 0, 0, 0, 0, 0, 0, 0, 0<br/>0, 0, 0, 0, 0, 0, 0, 0, 0, 0, 0, 0, 0, 0<br/>0, 0, 0, 0, 0, 0, 0, 0, 0, 0, 0, 0, 0, 40<br/>0, 0, 0, 0, 0, 0, 0, 0, 0, 0, 0, 0, 0, 0<br/>0, 0, 0, 0, 0, 0, 0, 0]<br/>class = 식도의 기타 질환>, fillcolor="#d739e5"] ;
111 -> 112 ;
113 [label=<gini = 0.0<br/>samples = 73<br/>value = [0, 0, 0, 0, 0, 0, 0, 0, 0, 0, 0, 0, 0, 0<br/>0, 0, 0, 0, 0, 0, 0, 0, 0, 0, 0, 0, 0, 0<br/>0, 0, 0, 0, 0, 0, 0, 0, 0, 0, 0, 0, 0, 0<br/>0, 0, 0, 0, 0, 0, 0, 0, 0, 0, 0, 0, 0, 0<br/>0, 0, 73, 0, 0, 0, 0, 0, 0, 0, 0, 0, 0, 0<br/>0, 0, 0, 0, 0, 0, 0, 0, 0, 0, 0, 0, 0, 0<br/>0, 0, 0, 0, 0, 0, 0, 0]<br/>class = 발작성 빈맥>, fillcolor="#5839e5"] ;
111 -> 113 ;
114 [label=<gini = 0.361<br/>samples = 347<br/>value = [0, 0, 0, 0, 0, 0, 0, 0, 0, 0, 0, 0, 0, 0<br/>0, 0, 0, 0, 0, 0, 0, 0, 0, 0, 0, 0, 0, 0<br/>0, 0, 0, 0, 0, 0, 0, 0, 0, 0, 0, 265, 0, 0<br/>0, 0, 0, 0, 0, 0, 0, 0, 0, 0, 0, 0, 0, 0<br/>0, 0, 0, 0, 0, 0, 0, 0, 0, 0, 0, 0, 0, 0<br/>0, 0, 82, 0, 0, 0, 0, 0, 0, 0, 0, 0, 0, 0<br/>0, 0, 0, 0, 0, 0, 0, 0]<br/>class = 기타 심장부정맥>, fillcolor="#76ede7"] ;
110 -> 114 ;
115 [label=<목 통증 &le; 0.5<br/>gini = 0.396<br/>samples = 404<br/>value = [0, 0, 0, 0, 0, 0, 0, 0, 0, 0, 0, 0, 0, 0<br/>0, 0, 0, 0, 0, 0, 0, 0, 294, 0, 0, 0, 0, 0<br/>0, 0, 0, 0, 0, 0, 0, 0, 0, 0, 0, 0, 0, 0<br/>0, 0, 0, 0, 0, 0, 0, 0, 0, 0, 0, 0, 0, 0<br/>0, 0, 0, 0, 0, 0, 0, 0, 0, 0, 0, 0, 110, 0<br/>0, 0, 0, 0, 0, 0, 0, 0, 0, 0, 0, 0, 0, 0<br/>0, 0, 0, 0, 0, 0, 0, 0]<br/>class = 급성 심근경색증>, fillcolor="#93ef83"] ;
109 -> 115 ;
116 [label=<gini = 0.0<br/>samples = 294<br/>value = [0, 0, 0, 0, 0, 0, 0, 0, 0, 0, 0, 0, 0, 0<br/>0, 0, 0, 0, 0, 0, 0, 0, 294, 0, 0, 0, 0, 0<br/>0, 0, 0, 0, 0, 0, 0, 0, 0, 0, 0, 0, 0, 0<br/>0, 0, 0, 0, 0, 0, 0, 0, 0, 0, 0, 0, 0, 0<br/>0, 0, 0, 0, 0, 0, 0, 0, 0, 0, 0, 0, 0, 0<br/>0, 0, 0, 0, 0, 0, 0, 0, 0, 0, 0, 0, 0, 0<br/>0, 0, 0, 0, 0, 0, 0, 0]<br/>class = 급성 심근경색증>, fillcolor="#53e539"] ;
115 -> 116 ;
117 [label=<gini = 0.0<br/>samples = 110<br/>value = [0, 0, 0, 0, 0, 0, 0, 0, 0, 0, 0, 0, 0, 0<br/>0, 0, 0, 0, 0, 0, 0, 0, 0, 0, 0, 0, 0, 0<br/>0, 0, 0, 0, 0, 0, 0, 0, 0, 0, 0, 0, 0, 0<br/>0, 0, 0, 0, 0, 0, 0, 0, 0, 0, 0, 0, 0, 0<br/>0, 0, 0, 0, 0, 0, 0, 0, 0, 0, 0, 0, 110, 0<br/>0, 0, 0, 0, 0, 0, 0, 0, 0, 0, 0, 0, 0, 0<br/>0, 0, 0, 0, 0, 0, 0, 0]<br/>class = 식도염>, fillcolor="#cb39e5"] ;
115 -> 117 ;
118 [label=<체중변화 &le; 0.5<br/>gini = 0.581<br/>samples = 1659<br/>value = [0, 0, 0, 0, 0, 0, 0, 0, 0, 0, 0, 0, 0, 0<br/>0, 0, 0, 0, 0, 0, 0, 0, 0, 0, 0, 0, 0, 282<br/>0, 0, 0, 0, 0, 0, 0, 0, 0, 0, 0, 0, 0, 0<br/>438, 0, 0, 0, 0, 0, 0, 0, 0, 0, 0, 0, 0, 0<br/>0, 0, 0, 0, 0, 0, 0, 0, 0, 0, 0, 0, 0, 0<br/>0, 0, 0, 0, 0, 0, 0, 0, 0, 0, 0, 0, 0, 0<br/>0, 0, 0, 939, 0, 0, 0, 0]<br/>class = 천식>, fillcolor="#f4b4ae"] ;
108 -> 118 ;
119 [label=<gini = 0.434<br/>samples = 1377<br/>value = [0, 0, 0, 0, 0, 0, 0, 0, 0, 0, 0, 0, 0, 0<br/>0, 0, 0, 0, 0, 0, 0, 0, 0, 0, 0, 0, 0, 0<br/>0, 0, 0, 0, 0, 0, 0, 0, 0, 0, 0, 0, 0, 0<br/>438, 0, 0, 0, 0, 0, 0, 0, 0, 0, 0, 0, 0, 0<br/>0, 0, 0, 0, 0, 0, 0, 0, 0, 0, 0, 0, 0, 0<br/>0, 0, 0, 0, 0, 0, 0, 0, 0, 0, 0, 0, 0, 0<br/>0, 0, 0, 939, 0, 0, 0, 0]<br/>class = 천식>, fillcolor="#f19d95"] ;
118 -> 119 ;
120 [label=<gini = 0.0<br/>samples = 282<br/>value = [0, 0, 0, 0, 0, 0, 0, 0, 0, 0, 0, 0, 0, 0<br/>0, 0, 0, 0, 0, 0, 0, 0, 0, 0, 0, 0, 0, 282<br/>0, 0, 0, 0, 0, 0, 0, 0, 0, 0, 0, 0, 0, 0<br/>0, 0, 0, 0, 0, 0, 0, 0, 0, 0, 0, 0, 0, 0<br/>0, 0, 0, 0, 0, 0, 0, 0, 0, 0, 0, 0, 0, 0<br/>0, 0, 0, 0, 0, 0, 0, 0, 0, 0, 0, 0, 0, 0<br/>0, 0, 0, 0, 0, 0, 0, 0]<br/>class = 기관지 및 폐의 악성 신생물>, fillcolor="#39e556"] ;
118 -> 120 ;
121 [label=<gini = 0.0<br/>samples = 324<br/>value = [0, 0, 0, 0, 0, 0, 0, 0, 0, 0, 0, 0, 0, 0<br/>0, 0, 0, 0, 0, 0, 0, 0, 0, 0, 0, 0, 0, 0<br/>0, 0, 0, 0, 0, 0, 0, 0, 0, 0, 0, 0, 0, 0<br/>0, 0, 0, 0, 0, 0, 0, 0, 0, 0, 0, 0, 0, 0<br/>0, 0, 0, 0, 0, 0, 0, 324, 0, 0, 0, 0, 0, 0<br/>0, 0, 0, 0, 0, 0, 0, 0, 0, 0, 0, 0, 0, 0<br/>0, 0, 0, 0, 0, 0, 0, 0]<br/>class = 상세불명 병원체의 폐렴>, fillcolor="#9239e5"] ;
107 -> 121 ;
122 [label=<기침 &le; 0.5<br/>gini = 0.608<br/>samples = 3053<br/>value = [0, 0, 0, 0, 0, 0, 0, 0, 0, 0, 0, 0, 0, 0<br/>0, 674, 0, 0, 0, 0, 0, 0, 0, 0, 0, 0, 0, 0<br/>0, 0, 0, 0, 0, 0, 0, 0, 0, 0, 0, 0, 0, 0<br/>0, 0, 0, 0, 0, 117, 0, 0, 0, 0, 0, 0, 569, 0<br/>0, 0, 0, 0, 0, 0, 0, 0, 0, 0, 0, 0, 0, 0<br/>0, 0, 0, 0, 0, 0, 0, 0, 0, 0, 0, 0, 0, 0<br/>0, 0, 0, 0, 0, 0, 0, 1693]<br/>class = 협심증>, fillcolor="#f4c4aa"] ;
106 -> 122 ;
123 [label=<gini = 0.577<br/>samples = 2936<br/>value = [0, 0, 0, 0, 0, 0, 0, 0, 0, 0, 0, 0, 0, 0<br/>0, 674, 0, 0, 0, 0, 0, 0, 0, 0, 0, 0, 0, 0<br/>0, 0, 0, 0, 0, 0, 0, 0, 0, 0, 0, 0, 0, 0<br/>0, 0, 0, 0, 0, 0, 0, 0, 0, 0, 0, 0, 569, 0<br/>0, 0, 0, 0, 0, 0, 0, 0, 0, 0, 0, 0, 0, 0<br/>0, 0, 0, 0, 0, 0, 0, 0, 0, 0, 0, 0, 0, 0<br/>0, 0, 0, 0, 0, 0, 0, 1693]<br/>class = 협심증>, fillcolor="#f3c1a6"] ;
122 -> 123 ;
124 [label=<gini = 0.0<br/>samples = 117<br/>value = [0, 0, 0, 0, 0, 0, 0, 0, 0, 0, 0, 0, 0, 0<br/>0, 0, 0, 0, 0, 0, 0, 0, 0, 0, 0, 0, 0, 0<br/>0, 0, 0, 0, 0, 0, 0, 0, 0, 0, 0, 0, 0, 0<br/>0, 0, 0, 0, 0, 117, 0, 0, 0, 0, 0, 0, 0, 0<br/>0, 0, 0, 0, 0, 0, 0, 0, 0, 0, 0, 0, 0, 0<br/>0, 0, 0, 0, 0, 0, 0, 0, 0, 0, 0, 0, 0, 0<br/>0, 0, 0, 0, 0, 0, 0, 0]<br/>class = 달리 분류되지 않은 세균성 폐렴>, fillcolor="#3995e5"] ;
122 -> 124 ;
125 [label=<gini = 0.0<br/>samples = 7708<br/>value = [0, 0, 0, 0, 0, 0, 0, 0, 0, 0, 0, 0, 0, 0<br/>0, 0, 0, 0, 0, 0, 0, 0, 0, 0, 0, 0, 0, 0<br/>0, 0, 0, 0, 0, 0, 0, 0, 0, 0, 0, 0, 0, 0<br/>0, 0, 0, 0, 0, 0, 0, 0, 0, 0, 0, 0, 0, 0<br/>0, 0, 0, 0, 0, 0, 0, 0, 0, 0, 0, 0, 0, 0<br/>0, 0, 0, 0, 0, 0, 0, 0, 0, 7708, 0, 0, 0, 0<br/>0, 0, 0, 0, 0, 0, 0, 0]<br/>class = 위-식도역류병>, fillcolor="#e53983"] ;
105 -> 125 ;
126 [label=<gini = 0.0<br/>samples = 16085<br/>value = [0, 0, 0, 0, 0, 0, 0, 0, 0, 0, 0, 0, 0, 0<br/>0, 0, 0, 0, 0, 0, 0, 0, 0, 0, 0, 0, 0, 0<br/>0, 0, 0, 0, 0, 0, 0, 0, 0, 0, 0, 0, 0, 0<br/>0, 0, 0, 0, 0, 0, 0, 0, 0, 0, 0, 0, 0, 0<br/>0, 0, 0, 0, 16085, 0, 0, 0, 0, 0, 0, 0, 0, 0<br/>0, 0, 0, 0, 0, 0, 0, 0, 0, 0, 0, 0, 0, 0<br/>0, 0, 0, 0, 0, 0, 0, 0]<br/>class = 본태성(원발성) 고혈압>, fillcolor="#6f39e5"] ;
104 -> 126 ;
}
